%YAML:1.0
---
opencv_ml_svm:
   format: 3
   svmType: C_SVC
   kernel:
      type: RBF
      gamma: 3.3750000000000002e-02
   C: 2.5000000000000000e+00
   term_criteria: { epsilon:1.1920928955078125e-07, iterations:1000 }
   var_count: 225
   class_count: 16
   class_labels: !!opencv-matrix
      rows: 16
      cols: 1
      dt: i
      data: [ 0, 1, 2, 3, 4, 5, 6, 7, 8, 9, 10, 11, 12, 13, 14, 15 ]
   sv_total: 146
   support_vectors:
      - [ 4.25217062e-01, 4.25217062e-01, 1.06457323e-01, 0., 0.,
          4.25217062e-01, 4.25217062e-01, 4.25217062e-01, 2.83498675e-01,
          1.58040941e-01, 2.95985371e-01, 0., 0., 0., 5.18345594e-01,
          5.18345594e-01, 5.18345594e-01, 2.76029795e-01, 7.01482356e-01,
          7.01482356e-01, 8.27232376e-02, 0., 2.25308016e-02,
          1.62551757e-02, 3.40067223e-02, 8.44067149e-03, 0.,
          6.23447835e-01, 6.23447835e-01, 9.65212137e-02, 9.72363539e-03,
          1.95737123e-01, 6.84278533e-02, 3.60836059e-01, 1.53354555e-01,
          1.01362221e-01, 1.56595811e-01, 8.95098522e-02, 1.68997403e-02,
          1.75291102e-03, 1.99396349e-02, 3.40742851e-03, 6.82563424e-01,
          6.82563424e-01, 1.67833745e-01, 1.57645181e-01, 2.15540051e-01,
          3.45976919e-01, 2.84721665e-02, 0., 4.48247254e-01,
          4.48247254e-01, 4.48247254e-01, 4.48247254e-01, 4.59848851e-01,
          4.59848851e-01, 0., 0., 0., 4.16533351e-01, 3.89741421e-01,
          2.81839877e-01, 4.09454226e-01, 5.38849890e-01, 5.38849890e-01,
          6.82675168e-02, 2.82273541e-04, 1.09160952e-01, 5.38849890e-01,
          3.27048749e-01, 1.46744901e-03, 1.23595633e-03, 9.69418958e-02,
          4.41275507e-01, 4.41275507e-01, 4.49019484e-02, 4.41275507e-01,
          4.41275507e-01, 4.41275507e-01, 1.02751084e-01, 0., 0.,
          8.66024196e-02, 2.96022087e-01, 9.13804024e-03, 6.84430897e-02,
          1.44269532e-02, 6.68290079e-01, 6.68290079e-01, 0.,
          3.31495553e-01, 3.11203040e-02, 4.06549782e-01, 4.06549782e-01,
          4.06549782e-01, 3.78642753e-02, 2.39234999e-01, 4.06549782e-01,
          4.06549782e-01, 4.40329164e-01, 4.40329164e-01, 0.,
          5.76063246e-02, 4.40329164e-01, 4.40329164e-01, 8.16368237e-02,
          1.27159536e-01, 4.40329164e-01, 2.21083149e-01, 2.98027188e-01,
          1.92411557e-01, 1.84473640e-04, 1.30150720e-01, 6.33232296e-01,
          6.33232296e-01, 1.46876031e-03, 7.06044817e-03, 5.93911740e-04,
          4.94618893e-01, 4.94618893e-01, 1.17632709e-01, 1.93859830e-01,
          4.94618893e-01, 4.53380555e-01, 6.43668100e-02, 0., 0.,
          1.47342250e-01, 4.76630092e-01, 4.63671833e-02, 1.96325168e-01,
          1.31270722e-01, 5.86231530e-01, 5.86231530e-01, 0.,
          1.21790208e-02, 5.22073684e-03, 1.13974966e-01, 6.95794642e-01,
          6.95794642e-01, 1.07142881e-01, 0., 0., 1.21790208e-02,
          2.01053843e-02, 0., 0., 1.76997989e-01, 6.92897201e-01,
          6.92897201e-01, 2.70812064e-02, 0., 2.01053843e-02,
          1.61760987e-03, 9.00359973e-02, 2.70108014e-01, 0.,
          6.49523795e-01, 6.49523795e-01, 2.62074471e-01, 0.,
          1.61760987e-03, 0., 4.13783371e-01, 5.02399683e-01,
          5.02399683e-01, 5.02399683e-01, 2.14223251e-01, 1.42072514e-01,
          2.17529330e-02, 0., 0., 5.05211800e-02, 2.21523494e-01,
          2.16425374e-01, 5.00576317e-01, 5.00576317e-01, 5.00576317e-01,
          3.80533278e-01, 0., 0., 0., 0., 3.08728009e-01, 9.40190136e-01,
          1.06535107e-01, 0., 0., 0., 0., 0., 0., 1.20387398e-01,
          9.34038341e-01, 3.22118878e-01, 0., 0., 0., 0., 6.78398460e-02,
          2.03519538e-01, 0., 9.70285356e-01, 5.33337705e-02, 0., 0., 0.,
          0., 8.13265890e-02, 2.43979752e-01, 6.05518818e-01,
          7.41350651e-01, 1.01026051e-01, 0., 0., 0., 0., 5.59199415e-03,
          1.67759825e-02, 1.51132017e-01, 7.90078402e-01, 5.30759275e-01,
          2.38177955e-01, 7.93926492e-02, 0. ]
      - [ 3.87744278e-01, 2.06247494e-01, 3.87744278e-01, 1.68649495e-01,
          3.87744278e-01, 3.87744278e-01, 3.87744278e-01, 1.51894048e-01,
          3.87744278e-01, 3.64544004e-01, 2.13559359e-01, 3.64544004e-01,
          3.64544004e-01, 3.64544004e-01, 1.43191621e-01, 3.64544004e-01,
          3.64544004e-01, 3.64544004e-01, 1.08772151e-01, 1.77717239e-01,
          5.29852390e-01, 2.61389464e-01, 4.79185488e-03, 1.40130268e-02,
          5.29852390e-01, 5.29852390e-01, 2.01293930e-01, 2.08605647e-01,
          4.33537215e-01, 4.72390234e-01, 4.72390234e-01, 0., 0.,
          2.98869044e-01, 4.72390234e-01, 7.09273964e-02, 3.50626297e-02,
          5.81967756e-02, 3.57188284e-01, 8.59191492e-02, 0., 0.,
          6.42508447e-01, 6.42508447e-01, 1.68432236e-01, 0.,
          2.62058496e-01, 5.19399047e-01, 9.94427204e-02, 2.14804947e-01,
          2.46540084e-01, 5.19399047e-01, 5.19399047e-01, 0.,
          9.93349677e-05, 4.58771676e-01, 4.58771676e-01, 3.95172000e-01,
          1.37988538e-01, 4.58054096e-02, 4.58771676e-01, 4.30489153e-01,
          3.71807702e-02, 3.48119438e-01, 2.30807126e-01, 3.60443920e-01,
          7.15007707e-02, 3.57677840e-04, 3.74492770e-03, 4.78093237e-01,
          4.78093237e-01, 4.78093237e-01, 4.73096579e-01, 4.73096579e-01,
          4.73096579e-01, 1.42603904e-01, 1.59762749e-05, 1.37272120e-01,
          4.59411234e-01, 1.84784278e-01, 1.98570386e-01, 2.20872406e-02,
          2.03381360e-01, 3.54175448e-01, 1.28384018e-02, 3.67116945e-06,
          4.36782211e-01, 5.63964069e-01, 5.63964069e-01, 4.69868071e-03,
          0., 1.04089774e-01, 4.36209053e-01, 1.82800993e-01,
          4.36209053e-01, 4.36209053e-01, 4.36209053e-01, 4.36209053e-01,
          0., 9.14366974e-04, 1.27022117e-01, 6.03519499e-01,
          6.03519499e-01, 2.50376672e-01, 3.07920314e-02, 3.60746294e-01,
          2.27272436e-01, 6.27661347e-02, 4.22996670e-01, 8.57688710e-02,
          2.64995903e-01, 4.22996670e-01, 4.22996670e-01, 1.24968871e-01,
          8.91463980e-02, 4.22996670e-01, 4.22996670e-01, 4.40357119e-01,
          4.32958007e-01, 9.99959931e-02, 4.20934483e-02, 4.40357119e-01,
          4.40357119e-01, 3.46454293e-01, 3.96731086e-02, 3.05008084e-01,
          3.57518047e-02, 9.34391916e-02, 4.82354909e-02, 0.,
          1.13253266e-01, 6.89141631e-01, 6.89141631e-01, 1.34621128e-01,
          1.83534191e-03, 0., 1.48955304e-02, 1.11254521e-01,
          2.44075239e-01, 5.45947194e-01, 5.45947194e-01, 5.45947194e-01,
          1.67931214e-01, 0., 3.18078790e-04, 2.73629315e-02,
          4.86159176e-01, 6.03224695e-01, 6.03224695e-01, 7.02999085e-02,
          1.50221139e-01, 4.00995091e-02, 9.45489621e-04, 1.58556867e-02,
          7.71653024e-04, 4.00879607e-02, 6.77006662e-01, 6.77006662e-01,
          2.72858977e-01, 0., 5.39714471e-04, 1.59363169e-02,
          1.30174663e-02, 0., 0., 1.39394790e-01, 6.95830762e-01,
          6.95830762e-01, 6.97130114e-02, 0., 1.52551597e-02,
          2.38008302e-04, 0., 0., 0., 6.23323858e-01, 6.23323858e-01,
          4.65521663e-01, 0., 8.29998869e-04, 0., 0., 0., 0., 0., 0., 0.,
          0., 0., 0., 0., 0., 0., 0., 0., 0., 0., 0., 0., 0., 0., 0.,
          9.95024860e-01, 0., 0., 0., 0., 0., 0., 0., 0., 9.95024860e-01,
          0., 0., 0., 0., 0., 0., 0., 0., 0., 0., 0., 0., 0. ]
      - [ 3.93659860e-01, 2.15998471e-01, 3.93659860e-01, 6.97156508e-03,
          3.93659860e-01, 3.93659860e-01, 3.93659860e-01, 1.39838979e-01,
          3.93659860e-01, 5.32289326e-01, 0., 1.41221026e-04,
          7.44886231e-03, 6.40281022e-01, 9.86213312e-02, 8.60690549e-02,
          1.20390849e-02, 5.31959832e-01, 5.31500220e-01, 4.83419979e-03,
          4.30459343e-02, 9.30610448e-02, 6.46444321e-01, 1.15800444e-02,
          0., 0., 5.31500220e-01, 4.01447743e-01, 1.35712832e-01,
          4.01447743e-01, 4.01447743e-01, 4.01447743e-01, 9.04172007e-03,
          3.79747272e-01, 1.65771857e-01, 4.01447743e-01, 1.27863079e-01,
          3.06866951e-02, 1.25410154e-01, 3.69260386e-02, 3.28991599e-02,
          8.16287880e-04, 6.57450855e-01, 6.57450855e-01, 3.05758595e-01,
          7.61863170e-03, 1.19446114e-01, 4.97790039e-01, 2.18296852e-02,
          4.00256604e-01, 2.37696990e-01, 5.07063150e-01, 5.07063150e-01,
          3.75181325e-02, 6.90363646e-02, 4.03083563e-02, 5.70722111e-02,
          1.32688895e-01, 5.63578665e-01, 2.41855562e-01, 5.63578665e-01,
          5.16057432e-01, 8.40632692e-02, 3.94573472e-02, 4.21976388e-01,
          4.64999259e-01, 4.48956162e-01, 6.21395886e-01, 8.77603441e-02,
          4.20505404e-02, 1.45520074e-02, 2.39615496e-02, 3.17694247e-02,
          5.05231380e-01, 5.05231380e-01, 2.98786879e-01, 4.51680124e-01,
          2.94876695e-02, 4.23857272e-01, 9.80454013e-02, 1.16200058e-03,
          2.13681231e-03, 1.62669972e-01, 3.24243516e-01, 1.55536644e-02,
          6.06042705e-03, 6.71856776e-02, 6.54626608e-01, 6.54626608e-01,
          1.36596063e-04, 2.04442348e-02, 5.18722162e-02, 4.45505112e-01,
          4.45505112e-01, 4.58301278e-03, 6.80410070e-03, 4.45505112e-01,
          4.45505112e-01, 4.45505112e-01, 5.56022346e-01, 1.60688478e-02,
          1.78670902e-02, 5.66018596e-02, 5.77887110e-02, 4.54377048e-02,
          2.40373611e-01, 5.56022346e-01, 5.56022346e-01, 5.59973478e-01,
          5.59973478e-01, 1.07363872e-01, 1.83152854e-01, 5.49856536e-02,
          1.54658202e-02, 2.65607368e-02, 6.82428852e-02, 5.59973478e-01,
          4.45630878e-01, 4.45630878e-01, 4.45630878e-01, 2.02904996e-02,
          6.80106180e-03, 4.45630878e-01, 4.45630878e-01, 3.82488258e-02,
          2.63303742e-02, 9.47774481e-03, 1.33645073e-01, 1.08060524e-01,
          6.07846705e-05, 8.76875944e-04, 6.57006919e-01, 6.57006919e-01,
          3.17008793e-01, 1.09547796e-03, 2.44016461e-02, 6.42598886e-03,
          5.94701529e-01, 6.47299886e-01, 3.65210801e-01, 1.17422431e-03,
          1.33745242e-02, 2.09412411e-01, 2.06932500e-01, 4.71719801e-01,
          1.21487130e-03, 1.43857123e-02, 4.71719801e-01, 4.71719801e-01,
          2.35158447e-02, 6.11505611e-03, 3.23127270e-01, 4.71719801e-01,
          4.78229284e-01, 2.78815478e-01, 3.35995411e-03, 4.78753299e-02,
          4.78229284e-01, 4.78229284e-01, 3.54622351e-03, 1.88787803e-02,
          4.78229284e-01, 2.88142115e-01, 2.51812756e-01, 1.35839749e-02,
          3.83504829e-03, 4.24390852e-01, 6.34006262e-01, 5.12919843e-01,
          8.21850169e-03, 4.25376967e-02, 1.84426166e-03, 1.26640564e-02,
          4.21100063e-03, 2.61376263e-04, 3.35284062e-02, 7.02804148e-01,
          7.02804148e-01, 6.17346428e-02, 2.61173351e-04, 2.64178816e-04,
          0., 1.10011652e-01, 7.00323582e-01, 7.00323582e-01, 0., 0., 0.,
          2.64178816e-04, 9.90982912e-03, 3.09997820e-04, 2.58219941e-03,
          7.03614056e-01, 7.03614056e-01, 5.13862483e-02, 4.71447638e-05,
          4.88096324e-04, 9.22740903e-03, 1.05470018e-02, 5.88390161e-04,
          3.69705172e-04, 8.46448839e-02, 7.02002704e-01, 7.02002704e-01,
          7.95148779e-04, 6.87991560e-04, 9.96266771e-03, 6.85431180e-04,
          0., 2.08231395e-05, 1.06690463e-03, 7.01812804e-01,
          7.01812804e-01, 8.89316201e-02, 6.65901229e-04, 9.50531801e-04,
          0., 0., 0., 0., 3.39574069e-01, 8.07712257e-01, 4.73528743e-01,
          0., 0. ]
      - [ 2.82228857e-01, 2.35525042e-01, 1.96630880e-01, 7.59930210e-03,
          1.09267924e-02, 1.61659066e-02, 5.60797632e-01, 5.60797632e-01,
          4.37246680e-01, 4.46671963e-01, 4.46671963e-01, 6.84684664e-02,
          1.84364337e-02, 5.08799702e-02, 2.18423251e-02, 4.35179561e-01,
          4.46671963e-01, 4.46671963e-01, 4.14088070e-01, 4.14088070e-01,
          3.67579907e-01, 2.44173147e-02, 1.16171120e-02, 5.16985841e-02,
          4.14088070e-01, 4.14088070e-01, 4.14088070e-01, 3.03023010e-01,
          5.18047810e-01, 5.18047810e-01, 5.18047810e-01, 3.76892053e-02,
          1.58818550e-02, 9.09359828e-02, 2.47885853e-01, 1.62767053e-01,
          1.21224411e-01, 2.02399880e-01, 4.55441147e-01, 3.79739732e-01,
          2.08653626e-03, 0., 4.40841496e-01, 4.55441147e-01,
          4.31727588e-01, 4.80691642e-01, 4.80691642e-01, 2.43461594e-01,
          0., 0., 3.84167209e-02, 4.80691642e-01, 4.80691642e-01,
          1.00954175e-01, 5.57279527e-01, 5.57279527e-01, 5.10593727e-02,
          7.65471756e-02, 2.32630357e-01, 2.37918407e-01, 3.49992812e-01,
          2.87751824e-01, 2.20973775e-01, 3.03836882e-01, 1.88709959e-01,
          7.48897046e-02, 4.86675017e-02, 7.63754696e-02, 7.89400116e-02,
          5.31264007e-01, 5.31264007e-01, 5.31264007e-01, 1.42944872e-01,
          4.41103518e-01, 4.41103518e-01, 4.41103518e-01, 1.15973793e-01,
          8.47914740e-02, 3.67249310e-01, 4.41103518e-01, 2.03371018e-01,
          2.90322974e-02, 4.72698689e-01, 4.72698689e-01, 3.14872950e-01,
          6.77414052e-03, 3.57947052e-02, 4.72698689e-01, 4.72698689e-01,
          1.36946775e-02, 4.29054350e-01, 4.28272396e-01, 3.22394788e-01,
          1.92321446e-02, 6.22650646e-02, 4.29054350e-01, 4.29054350e-01,
          2.50036418e-01, 2.98882037e-01, 2.58934170e-01, 2.34468669e-01,
          4.52649117e-01, 4.52649117e-01, 4.52649117e-01, 4.52649117e-01,
          2.27746889e-01, 3.99691276e-02, 2.06208732e-02, 1.17178097e-01,
          3.23848762e-02, 4.35138077e-01, 4.35138077e-01, 1.60855815e-01,
          9.09588560e-02, 4.35138077e-01, 4.35138077e-01, 4.35138077e-01,
          4.52230543e-01, 4.52230543e-01, 3.68706673e-01, 4.86253835e-02,
          1.34289116e-01, 1.14223994e-01, 8.96839201e-02, 4.52230543e-01,
          4.52230543e-01, 3.67737144e-01, 4.54972744e-01, 4.54972744e-01,
          7.70407589e-03, 4.40825187e-02, 4.54972744e-01, 4.54972744e-01,
          1.68052152e-01, 4.44954447e-02, 1.49316248e-02, 3.29856463e-02,
          1.32791296e-01, 1.63208947e-01, 6.59258783e-01, 6.59258783e-01,
          2.79807597e-01, 7.73356855e-03, 1.54982749e-02, 2.34451401e-03,
          5.78824198e-03, 4.73818868e-01, 4.73818868e-01, 4.73818868e-01,
          4.73818868e-01, 3.04867297e-01, 5.55333160e-02, 3.43970507e-02,
          4.00065258e-02, 2.80652079e-03, 4.90731150e-01, 6.01280570e-01,
          6.01280570e-01, 2.53178589e-02, 1.10878646e-02, 7.00202063e-02,
          1.51087597e-01, 3.19594830e-01, 5.12630716e-02, 6.99338783e-03,
          4.38510120e-01, 5.55304706e-01, 5.55304706e-01, 1.19919311e-02,
          2.96454318e-02, 2.82128751e-01, 7.38523751e-02, 4.26422879e-02,
          5.00402646e-03, 1.48459536e-03, 5.88443995e-01, 5.88443995e-01,
          5.42235553e-01, 5.31430542e-03, 1.56269651e-02, 0., 0.,
          1.77438334e-02, 1.63304508e-01, 6.91653490e-01, 6.91653490e-01,
          9.62675586e-02, 7.45631428e-03, 4.47834982e-03, 0.,
          2.08786987e-02, 3.27318341e-01, 5.33787012e-01, 5.33787012e-01,
          5.33787012e-01, 1.41548201e-01, 9.49760526e-02, 5.70437349e-02,
          0., 1.89622841e-03, 7.24000707e-02, 7.02706993e-01,
          7.02706993e-01, 1.14026433e-02, 2.01939396e-03, 2.89948820e-03,
          1.74146658e-03, 0., 0., 7.06511419e-05, 2.97835380e-01,
          7.44462013e-01, 5.91303349e-01, 0., 0., 0., 0., 0., 0.,
          1.03642997e-04, 7.03662455e-01, 7.03662455e-01, 5.19043505e-02,
          0., 0. ]
      - [ 7.04590499e-01, 7.04590499e-01, 0., 0., 9.50797577e-04,
          2.72364775e-03, 0., 0., 7.91939069e-03, 6.39612734e-01,
          6.39612734e-01, 1.12320893e-02, 2.19655819e-02, 9.91210863e-02,
          4.05319184e-01, 1.96081400e-02, 0., 1.74188688e-02,
          3.84463161e-01, 3.84463161e-01, 3.84463161e-01, 1.53257921e-01,
          3.84463161e-01, 3.84463161e-01, 3.84463161e-01, 2.54834324e-01,
          1.44427106e-01, 5.60084023e-02, 3.88786681e-02, 7.01173097e-02,
          1.06639797e-02, 4.23465893e-02, 0., 6.88661516e-01,
          6.88661516e-01, 1.82055175e-01, 0., 0., 0., 0., 0., 0.,
          7.04448938e-01, 7.04448938e-01, 2.17107739e-02, 6.83430135e-01,
          6.83430135e-01, 5.42941270e-03, 0., 6.99231075e-03,
          1.51954263e-01, 1.85204551e-01, 3.13755088e-02, 2.38785483e-02,
          4.66822594e-01, 4.66822594e-01, 9.55845416e-02, 3.29543389e-02,
          6.97901845e-02, 4.66822594e-01, 4.34620231e-01, 9.05978084e-02,
          3.59682560e-01, 3.99138749e-01, 4.12899971e-01, 4.12899971e-01,
          1.83061361e-01, 2.28945881e-01, 4.12899971e-01, 4.05626327e-01,
          1.40995920e-01, 2.34017164e-01, 2.86321610e-01, 1.23202473e-01,
          2.95955688e-01, 1.71654560e-02, 2.05637626e-02, 0.,
          5.35256624e-01, 5.35256624e-01, 4.85992998e-01, 4.98753130e-01,
          0., 0., 0., 0., 0., 4.98753130e-01, 4.98753130e-01,
          4.98753130e-01, 5.25009394e-01, 5.25009394e-01, 2.60116369e-01,
          8.06760490e-02, 5.25009394e-01, 7.87688121e-02, 2.54929930e-01,
          8.97561312e-02, 1.20138124e-01, 4.59794730e-01, 6.36774972e-02,
          2.62748003e-02, 2.55212486e-02, 4.59794730e-01, 4.40774292e-01,
          3.74322087e-01, 1.46213189e-01, 4.59794730e-01, 4.21902239e-01,
          4.21902239e-01, 4.21902239e-01, 1.84922010e-01, 4.21902239e-01,
          1.63830549e-01, 1.84303492e-01, 1.03795931e-01, 4.21902239e-01,
          4.21649128e-01, 7.04522356e-02, 1.40532643e-01, 1.40777258e-02,
          4.21649128e-01, 2.86245942e-01, 4.21649128e-01, 4.21649128e-01,
          4.21649128e-01, 4.34327930e-01, 0., 0., 0., 4.32168722e-01,
          2.33084828e-01, 4.34327930e-01, 4.34327930e-01, 4.34327930e-01,
          5.13067888e-03, 1.58709530e-02, 8.37174803e-02, 1.28773823e-01,
          9.83004570e-01, 0., 0., 0., 5.13067888e-03, 3.33872326e-02,
          3.62921581e-02, 1.53082684e-01, 1.29178271e-01, 9.72947240e-01,
          0., 0., 0., 3.33872326e-02, 1.56001281e-02, 2.71221459e-01,
          5.30618608e-01, 5.30618608e-01, 5.30618608e-01, 1.91605508e-01,
          1.97315350e-01, 1.84030216e-02, 1.56001281e-02, 1.63847841e-02,
          4.22332436e-02, 2.08901539e-01, 1.32974550e-01, 5.50958276e-01,
          5.50958276e-01, 5.50958276e-01, 1.42092466e-01, 1.63847841e-02,
          1.36234360e-02, 0., 0., 0., 5.44172883e-01, 5.44172883e-01,
          5.44172883e-01, 3.25303435e-01, 1.36234360e-02, 0., 0., 0., 0.,
          9.95024860e-01, 0., 0., 0., 0., 0., 1.97332054e-01,
          6.43571794e-01, 1.19400702e-01, 7.24833548e-01, 0., 0., 0., 0.,
          0., 2.02298656e-01, 5.45040309e-01, 5.45040309e-01,
          5.45040309e-01, 2.36237273e-01, 8.12614039e-02, 3.73617653e-03,
          0., 0., 2.07461417e-02, 1.16010822e-01, 1.57065094e-01,
          5.60390890e-01, 5.60390890e-01, 5.60390890e-01, 1.17181979e-01,
          0., 0., 0., 0., 0., 5.81954360e-01, 5.35378456e-01,
          5.81954360e-01, 1.73830673e-01, 0. ]
      - [ 6.38528824e-01, 6.38528824e-01, 0., 0., 0., 0., 0., 0.,
          4.22121853e-01, 6.46890819e-01, 6.46890819e-01, 0., 0.,
          5.52407727e-02, 7.58517208e-03, 0., 0., 3.91787291e-01,
          6.46819890e-01, 6.46819890e-01, 8.77836440e-03, 0.,
          1.54674962e-01, 2.20893435e-02, 5.65965213e-02, 9.55448300e-03,
          3.59174877e-01, 4.42217320e-01, 3.92416865e-01, 4.31716070e-03,
          0., 4.42217320e-01, 4.42217320e-01, 4.42217320e-01,
          9.92574170e-02, 2.22478151e-01, 2.50208646e-01, 6.51088282e-02,
          4.11093095e-03, 0., 4.79930848e-01, 4.79930848e-01,
          4.79930848e-01, 4.79930848e-01, 8.37360844e-02, 6.25354528e-01,
          6.25354528e-01, 9.39680189e-02, 1.74589141e-03, 9.29798186e-02,
          1.91095397e-01, 1.27130434e-01, 7.44977146e-02, 3.68662328e-01,
          4.66536254e-01, 2.97033131e-01, 7.05645233e-02, 7.30243474e-02,
          4.66536254e-01, 4.66536254e-01, 1.09064691e-01, 1.98864296e-01,
          4.38621789e-01, 2.92898297e-01, 3.93983781e-01, 3.93983781e-01,
          3.93983781e-01, 3.93983781e-01, 3.93983781e-01, 3.21853578e-01,
          1.15261480e-01, 1.31467655e-01, 1.48281092e-02, 6.61536381e-02,
          1.85415328e-01, 3.00886724e-02, 3.23936582e-01, 5.32242358e-01,
          5.32242358e-01, 5.32242358e-01, 4.84670652e-03, 0., 0., 0., 0.,
          5.28883576e-01, 5.28883576e-01, 5.28883576e-01, 3.94416958e-01,
          0., 2.44392470e-01, 1.09618887e-01, 2.84243941e-01,
          5.14158487e-01, 5.14158487e-01, 1.65119991e-01, 3.27890962e-01,
          2.04007879e-01, 3.70421827e-01, 3.21116537e-01, 7.05989525e-02,
          9.02223513e-02, 3.16839278e-01, 4.31759089e-01, 4.31759089e-01,
          1.82746455e-01, 4.31759089e-01, 4.31759089e-01, 4.20055598e-01,
          4.20055598e-01, 4.20055598e-01, 9.67597589e-02, 2.15821475e-01,
          1.94435433e-01, 2.99336106e-01, 3.26601356e-01, 4.20055598e-01,
          6.60012811e-02, 1.14501975e-01, 2.79188424e-01, 7.49806454e-03,
          3.78227257e-03, 0., 6.22985184e-01, 6.22985184e-01,
          3.49392951e-01, 1.58884287e-01, 0., 0., 0., 0., 0.,
          5.68354428e-01, 5.68354428e-01, 5.68354428e-01, 7.41796056e-03,
          0., 1.60972252e-02, 7.04222858e-01, 7.04222858e-01, 0., 0.,
          1.41341402e-03, 2.81844400e-02, 8.05302411e-02, 4.72605508e-03,
          2.54851859e-03, 6.70893013e-01, 6.70893013e-01, 0., 0.,
          4.60536033e-02, 2.90641487e-01, 2.95203447e-01, 7.03361481e-02,
          1.23283647e-01, 6.01570785e-01, 6.01570785e-01, 0.,
          1.22586951e-01, 1.16595440e-01, 3.66476804e-01, 1.40101075e-01,
          8.54881294e-03, 2.02449653e-02, 4.41695988e-01, 4.41695988e-01,
          0., 4.41695988e-01, 4.41695988e-01, 4.41695988e-01,
          1.37575269e-01, 0., 0., 6.42265603e-02, 7.98051879e-02, 0.,
          5.67131937e-01, 5.67131937e-01, 5.67131937e-01, 0., 0., 0.,
          7.04615593e-01, 7.04615593e-01, 0., 0., 0., 0., 0., 0., 0.,
          7.04615593e-01, 7.04615593e-01, 0., 0., 0., 0., 1.69029779e-04,
          0., 0., 7.04615235e-01, 7.04615235e-01, 0., 0., 0.,
          1.02541817e-03, 1.57697331e-02, 0., 0., 6.85252964e-01,
          6.85252964e-01, 7.32734576e-02, 1.66118547e-01, 8.00130218e-02,
          1.20003447e-01, 1.10539030e-02, 0., 0., 4.59492266e-01,
          4.59492266e-01, 3.52803379e-01, 4.59492266e-01, 4.59492266e-01,
          1.62128061e-01 ]
      - [ 5.48134089e-01, 5.48134089e-01, 9.85543728e-02, 3.07304715e-03,
          1.39209062e-01, 5.48134089e-01, 2.52387792e-01, 6.32408354e-03,
          1.82208605e-02, 5.43607056e-01, 1.87171727e-01, 1.56744700e-02,
          7.47375488e-02, 5.62654734e-01, 5.62654734e-01, 1.06727168e-01,
          2.79617263e-03, 1.15969442e-01, 1.34830102e-01, 4.24893294e-03,
          9.30680558e-02, 5.92331171e-01, 5.92331171e-01, 1.23941496e-01,
          1.74732469e-02, 1.20522603e-01, 4.85099643e-01, 2.19042115e-02,
          9.45328362e-03, 2.80429780e-01, 5.33774436e-01, 2.31413439e-01,
          3.82275117e-04, 8.46264139e-02, 5.33774436e-01, 5.33774436e-01,
          4.33126086e-04, 3.13755870e-03, 3.06230839e-02, 2.32771132e-02,
          2.05705815e-04, 0., 5.15282810e-01, 6.24717176e-01,
          5.80073237e-01, 4.21745740e-02, 5.26851594e-01, 3.23081136e-01,
          2.06255529e-04, 3.40932198e-02, 5.26851594e-01, 5.26851594e-01,
          2.33875573e-01, 3.25294270e-04, 1.98608637e-03, 3.83486832e-03,
          1.55398782e-04, 3.67095619e-02, 5.73037565e-01, 5.73037565e-01,
          5.73037565e-01, 8.82921368e-02, 1.95002707e-04, 0.,
          5.87952882e-02, 5.72874963e-01, 5.72874963e-01, 5.72874963e-01,
          7.91513473e-02, 0., 7.50289648e-04, 2.19459529e-04,
          2.29389130e-04, 2.42630199e-01, 5.40103376e-01, 5.40103376e-01,
          5.26230261e-02, 2.69955071e-05, 2.76098013e-01, 5.21512866e-01,
          3.65874656e-02, 6.23219239e-05, 5.52806929e-02, 3.76575887e-01,
          7.94761330e-02, 4.85749828e-04, 0., 6.46803260e-01,
          6.46803260e-01, 7.51768723e-02, 0., 1.02340110e-01,
          5.54637372e-01, 1.53051466e-01, 2.11173366e-03, 1.32770270e-01,
          5.54637372e-01, 5.54637372e-01, 1.41643748e-01, 0., 0., 0., 0.,
          8.39644868e-04, 2.05664545e-01, 6.77677810e-01, 6.77677810e-01,
          1.80115327e-01, 2.70317584e-01, 6.71993434e-01, 6.71993434e-01,
          1.30650610e-01, 0., 0., 0., 0., 0., 1.66647583e-01,
          5.61888397e-01, 5.61888397e-01, 9.26124230e-02, 4.69954575e-05,
          1.56925172e-01, 5.45211554e-01, 6.87202439e-02, 0.,
          9.75504518e-03, 2.11247489e-01, 2.95097500e-01, 6.50468282e-03,
          2.97681145e-05, 5.12387395e-01, 5.75738072e-01, 5.18063962e-01,
          0., 0., 1.66280810e-02, 4.06798214e-01, 4.06798214e-01,
          4.06798214e-01, 4.06798214e-01, 4.06798214e-01, 4.06798214e-01,
          5.24485074e-02, 0., 0., 0., 0., 1.07628889e-01, 5.71177483e-01,
          5.71177483e-01, 5.71177483e-01, 6.30974844e-02, 1.61127493e-01,
          5.67716718e-01, 5.67716718e-01, 5.67716718e-01, 3.82378288e-02,
          0., 0., 0., 0., 1.09076381e-01, 4.13138211e-01, 4.13138211e-01,
          4.13138211e-01, 3.61120313e-01, 4.13138211e-01, 4.13138211e-01,
          1.23121766e-02, 0., 7.66956015e-03, 1.08185433e-01,
          6.79138526e-02, 1.06839985e-01, 1.45852804e-01, 6.77564144e-01,
          6.77564144e-01, 1.61203846e-01, 0., 0., 1.99814457e-02,
          3.02051246e-01, 5.40243924e-01, 5.40243924e-01, 5.40243924e-01,
          1.65261313e-01, 8.31183419e-03, 0., 0., 0., 0., 0.,
          5.17660141e-01, 6.08591855e-01, 5.90167582e-01, 8.52613822e-02,
          0., 0., 1.43870428e-01, 6.69699967e-01, 6.69699967e-01,
          2.74989873e-01, 0., 0., 0., 0., 0., 1.57904588e-02,
          3.29474390e-01, 5.31414747e-01, 5.31414747e-01, 5.31414747e-01,
          1.96669459e-01, 2.51782220e-03, 0., 0., 0., 1.73559189e-02,
          2.55189240e-01, 5.55993795e-01, 5.55993795e-01, 5.55993795e-01,
          4.04672511e-02, 0. ]
      - [ 2.09007591e-01, 2.83637106e-01, 4.41367626e-01, 1.44279659e-01,
          4.41367626e-01, 4.41367626e-01, 4.41367626e-01, 2.08734319e-01,
          1.66880071e-01, 2.05160946e-01, 3.15987200e-01, 4.37189579e-01,
          4.37189579e-01, 4.37189579e-01, 2.18746960e-01, 4.29735750e-01,
          8.35603550e-02, 2.01951325e-01, 2.18772143e-01, 7.76614398e-02,
          3.29449534e-01, 1.87421173e-01, 4.76199239e-01, 4.76199239e-01,
          4.76199239e-01, 2.62704909e-01, 2.19946474e-01, 1.66579291e-01,
          1.94160059e-01, 4.49656099e-01, 4.49656099e-01, 4.49656099e-01,
          1.57677040e-01, 4.49656099e-01, 2.37759203e-01, 1.99769303e-01,
          2.43239645e-02, 4.29139547e-02, 2.31753379e-01, 5.40244319e-02,
          2.70162821e-02, 0., 6.81192100e-01, 6.81192100e-01,
          7.32324421e-02, 8.77999887e-02, 3.86564046e-01, 5.01582801e-01,
          4.80767637e-02, 1.06052771e-01, 1.33370250e-01, 5.01582801e-01,
          5.01582801e-01, 2.27481097e-01, 1.82219982e-01, 5.08033514e-01,
          5.08033514e-01, 1.30604327e-01, 1.17484748e-01, 6.31085262e-02,
          5.08033514e-01, 3.65943193e-01, 1.36640653e-01, 3.71464714e-02,
          2.61819661e-01, 5.25543451e-01, 4.55087796e-02, 1.34151250e-01,
          1.45878151e-01, 5.47171772e-01, 5.47171772e-01, 9.09316763e-02,
          7.83788189e-02, 5.36934376e-01, 5.36934376e-01, 1.31098792e-01,
          1.34616092e-01, 5.06345108e-02, 5.36934376e-01, 2.89446861e-01,
          4.41288464e-02, 1.90197397e-03, 1.62488446e-01, 3.73307198e-01,
          6.78107888e-03, 1.28039741e-03, 1.91676319e-02, 6.43194795e-01,
          6.43194795e-01, 1.04862163e-04, 3.60510826e-01, 2.23662630e-01,
          3.74062240e-01, 3.74062240e-01, 3.74062240e-01, 1.53727010e-01,
          3.05000424e-01, 3.74062240e-01, 3.74062240e-01, 3.69502902e-01,
          3.69502902e-01, 3.28166306e-01, 3.57336462e-01, 3.69502902e-01,
          3.69502902e-01, 1.37368098e-01, 2.43709162e-01, 3.69502902e-01,
          3.77610534e-01, 2.48602688e-01, 2.34629586e-01, 3.77610534e-01,
          3.77610534e-01, 1.54385746e-01, 3.77610534e-01, 3.77610534e-01,
          3.77610534e-01, 3.89368206e-01, 3.89368206e-01, 3.89368206e-01,
          4.56132963e-02, 1.59984395e-01, 3.89368206e-01, 3.89368206e-01,
          2.42464066e-01, 3.89368206e-01, 2.37416700e-02, 1.39888480e-01,
          1.12770148e-01, 2.42859038e-04, 1.68208033e-02, 6.39961421e-01,
          6.39961421e-01, 3.75991344e-01, 2.71207071e-03, 2.89393105e-02,
          1.04876910e-03, 1.50311992e-01, 6.07283771e-01, 6.07283771e-01,
          4.81398314e-01, 1.15608540e-03, 4.08096192e-03, 3.39801647e-02,
          3.49162966e-02, 4.98771435e-04, 1.14705518e-01, 5.71335793e-01,
          5.71335793e-01, 5.71335793e-01, 1.44569727e-03, 3.59763112e-03,
          2.50836276e-02, 7.87594914e-02, 8.98256619e-03, 2.95805633e-01,
          6.26936138e-01, 6.26936138e-01, 3.09867501e-01, 6.84040599e-03,
          3.69499661e-02, 1.28171638e-01, 1.38714164e-01, 4.55417894e-02,
          2.00930908e-02, 3.51193219e-01, 6.18156016e-01, 6.18156016e-01,
          2.77377337e-01, 1.58007108e-02, 8.57349858e-02, 7.63993105e-03,
          8.91389977e-03, 3.05864075e-03, 1.03191717e-03, 4.48824227e-01,
          6.24833047e-01, 6.24833047e-01, 1.06465451e-01, 1.56662602e-03,
          0., 0., 0., 6.25198722e-01, 7.26227939e-01, 2.72893101e-01, 0.,
          0., 0., 0., 0., 5.95347025e-02, 5.06763399e-01, 6.35435402e-01,
          5.74041903e-01, 0., 0., 0., 0., 0., 8.30220282e-02,
          6.90863967e-01, 6.90863967e-01, 1.77833483e-01, 0., 0., 0., 0.,
          0., 3.40107386e-03, 2.82607347e-01, 6.75772250e-01,
          6.75772250e-01, 6.24552416e-03, 0., 0., 0., 0., 0., 0.,
          7.03281522e-01, 7.03281522e-01, 6.13989756e-02, 0., 0. ]
      - [ 4.10668463e-01, 4.10668463e-01, 1.46776423e-01, 1.91329926e-01,
          4.10668463e-01, 4.10668463e-01, 3.39198172e-01, 7.09236637e-02,
          3.78242016e-01, 3.94217312e-01, 3.50684464e-01, 2.44802147e-01,
          3.94217312e-01, 3.94217312e-01, 1.51546061e-01, 1.14679746e-01,
          3.94217312e-01, 3.94217312e-01, 3.90735805e-01, 3.90735805e-01,
          7.03426525e-02, 2.34153017e-01, 3.90735805e-01, 3.90735805e-01,
          3.90735805e-01, 1.42386943e-01, 3.90735805e-01, 2.61793673e-01,
          5.18818796e-02, 3.98666561e-01, 3.98666561e-01, 3.98666561e-01,
          2.33889982e-01, 2.74609059e-01, 3.98666561e-01, 3.98666561e-01,
          1.28825195e-02, 8.19120090e-03, 1.14170864e-01, 5.98448962e-02,
          8.85292143e-03, 3.05212219e-03, 6.33444011e-01, 6.33444011e-01,
          4.17415828e-01, 1.11253940e-01, 4.03896421e-01, 4.03896421e-01,
          2.56214529e-01, 2.20589414e-01, 4.03896421e-01, 4.03896421e-01,
          4.03896421e-01, 2.31560722e-01, 2.52621919e-01, 4.31251585e-01,
          4.31251585e-01, 4.31251585e-01, 2.14175999e-01, 1.70264229e-01,
          4.31251585e-01, 2.74709135e-01, 1.94000706e-01, 1.48008540e-01,
          1.82234421e-01, 3.70450705e-01, 1.73222378e-01, 2.01522917e-01,
          4.75044489e-01, 4.75044489e-01, 4.75044489e-01, 2.35130474e-01,
          2.62105793e-01, 4.36650902e-01, 4.36650902e-01, 4.36650902e-01,
          1.80000156e-01, 1.60481170e-01, 4.36650902e-01, 3.12540412e-01,
          9.19081420e-02, 9.90943983e-03, 1.57401323e-01, 4.07559395e-01,
          4.20668498e-02, 1.71843509e-03, 1.25714332e-01, 6.26537561e-01,
          6.26537561e-01, 9.54853185e-03, 3.59755337e-01, 2.03665867e-01,
          3.83255541e-01, 3.83255541e-01, 3.83255541e-01, 1.41236544e-01,
          2.66262382e-01, 3.83255541e-01, 3.83255541e-01, 3.72740686e-01,
          3.72740686e-01, 3.27972442e-01, 3.72740686e-01, 3.72740686e-01,
          3.72740686e-01, 1.43048748e-01, 1.86100975e-01, 3.72740686e-01,
          3.79750222e-01, 1.62816346e-01, 2.53871143e-01, 3.79750222e-01,
          3.79750222e-01, 1.99962482e-01, 3.79750222e-01, 3.79750222e-01,
          3.79750222e-01, 3.78599137e-01, 3.78599137e-01, 3.78599137e-01,
          7.71525577e-02, 3.24329019e-01, 3.78599137e-01, 3.78599137e-01,
          1.58277839e-01, 3.78599137e-01, 4.15185429e-02, 1.39321923e-01,
          1.02982461e-01, 3.97133772e-05, 3.24787162e-02, 6.64247751e-01,
          6.64247751e-01, 2.79501140e-01, 1.69576565e-03, 3.25860456e-02,
          2.68130191e-03, 1.37352064e-01, 6.58090830e-01, 6.58090830e-01,
          3.25962454e-01, 4.93849861e-04, 0., 3.28100249e-02,
          2.93379538e-02, 1.29795978e-02, 1.22848265e-01, 5.70114315e-01,
          5.70114315e-01, 5.70114315e-01, 4.81952094e-02, 6.20534702e-04,
          2.77886465e-02, 5.33453971e-02, 1.25337522e-02, 1.85068712e-01,
          6.52108967e-01, 6.52108967e-01, 3.13348949e-01, 1.07492907e-02,
          1.13845086e-02, 8.55067149e-02, 8.64923149e-02, 1.17960172e-02,
          3.84282763e-03, 3.37630570e-01, 6.39198363e-01, 6.39198363e-01,
          2.27159992e-01, 6.31998805e-03, 5.65543212e-02, 5.75465849e-03,
          2.44751084e-03, 8.94934288e-04, 0., 4.80060190e-01,
          6.15714133e-01, 6.15714133e-01, 7.17335716e-02, 1.04041817e-03,
          0., 0., 0., 0., 9.95024860e-01, 0., 0., 0., 0., 0., 0., 0.,
          1.94298968e-01, 9.75967228e-01, 0., 0., 0., 0., 0., 0., 0.,
          7.00626016e-01, 7.00626016e-01, 1.06077716e-01, 0., 0., 0., 0.,
          0., 0., 2.01054603e-01, 6.90176487e-01, 6.90176487e-01, 0., 0.,
          0., 0., 0., 0., 0., 7.04615593e-01, 7.04615593e-01, 0., 0., 0. ]
      - [ 5.41798472e-01, 5.41798472e-01, 9.52345803e-02, 3.46411541e-02,
          2.65283406e-01, 5.41798472e-01, 1.41565621e-01, 9.35215689e-03,
          1.14801578e-01, 3.94109964e-01, 3.94109964e-01, 3.92858326e-01,
          1.51653469e-01, 3.94109964e-01, 3.94109964e-01, 2.05156922e-01,
          4.86779539e-03, 3.94109964e-01, 4.21881586e-01, 5.34090623e-02,
          9.12186652e-02, 3.60089630e-01, 4.21881586e-01, 4.21881586e-01,
          3.76753569e-01, 3.26850154e-02, 4.21881586e-01, 1.77228794e-01,
          4.82164556e-03, 3.02520841e-01, 4.61184591e-01, 4.61184591e-01,
          1.24760211e-01, 7.81749785e-02, 4.61184591e-01, 4.61184591e-01,
          1.07277315e-02, 2.06047483e-03, 5.91501221e-02, 4.21198756e-02,
          3.25388531e-03, 0., 5.74126661e-01, 5.74126661e-01,
          5.74126661e-01, 4.90968339e-02, 4.40431833e-01, 4.40431833e-01,
          4.50459979e-02, 1.45634726e-01, 4.40431833e-01, 4.40431833e-01,
          4.40431833e-01, 7.09317997e-03, 7.30843341e-04, 4.49002832e-01,
          4.49002832e-01, 1.12367496e-01, 2.81558931e-01, 4.49002832e-01,
          4.49002832e-01, 3.11408848e-01, 1.49352839e-02, 7.31801763e-02,
          2.20671356e-01, 2.46035948e-01, 2.89090425e-01, 4.01849806e-01,
          4.48010296e-01, 4.48010296e-01, 4.48010296e-01, 1.83694646e-01,
          1.74492225e-01, 4.83161360e-01, 4.83161360e-01, 4.83161360e-01,
          2.60417640e-01, 1.31070390e-01, 3.05038631e-01, 2.88516432e-01,
          5.57226986e-02, 8.03503301e-03, 1.33291513e-01, 3.92432421e-01,
          6.40090853e-02, 9.89984139e-04, 4.80472744e-02, 6.37599409e-01,
          6.37599409e-01, 4.82391939e-02, 0., 1.66201830e-01,
          4.60610777e-01, 3.15571934e-01, 1.34281784e-01, 4.60610777e-01,
          4.60610777e-01, 4.60610777e-01, 3.88551168e-02, 4.51275241e-03,
          3.09392184e-01, 4.72225428e-01, 4.72225428e-01, 2.30749361e-02,
          1.36540920e-01, 4.56364155e-01, 4.72225428e-01, 5.57208247e-02,
          4.25110966e-01, 3.07425022e-01, 2.45361850e-01, 3.09787601e-01,
          1.47855654e-01, 1.82704348e-02, 4.25110966e-01, 4.25110966e-01,
          4.25110966e-01, 3.98944259e-01, 3.98944259e-01, 3.98944259e-01,
          1.53872399e-02, 1.18177436e-01, 3.98944259e-01, 3.98944259e-01,
          1.63928866e-01, 3.98944259e-01, 2.97517758e-02, 1.41320989e-01,
          1.17669515e-01, 1.39280164e-03, 1.08669586e-02, 6.26565397e-01,
          6.26565397e-01, 4.16828871e-01, 2.55523133e-03, 0.,
          2.01405510e-02, 3.60386103e-01, 4.91172940e-01, 4.91172940e-01,
          4.91172940e-01, 2.84722567e-01, 2.44890735e-01, 4.42942372e-03,
          1.78788486e-03, 2.20699161e-02, 5.39943278e-01, 5.39943278e-01,
          4.90174323e-01, 3.53924513e-01, 1.79248884e-01, 1.15470596e-01,
          6.56148838e-03, 1.29814282e-01, 1.60491113e-02, 1.21339694e-01,
          6.57135189e-01, 6.57135189e-01, 2.58807421e-01, 2.46851216e-03,
          5.67268059e-02, 1.66578010e-01, 1.27879634e-01, 5.14457971e-02,
          2.76988512e-03, 7.50094503e-02, 6.81413412e-01, 6.81413412e-01,
          1.80083394e-01, 1.26951588e-02, 8.55792016e-02, 3.98727413e-03,
          5.50656952e-03, 1.29724073e-03, 0., 3.07755500e-01,
          6.67491853e-01, 6.67491853e-01, 8.65007192e-02, 1.28214282e-03,
          0., 9.11720749e-03, 2.73516234e-02, 3.67256165e-01,
          6.54886842e-01, 6.54886842e-01, 0., 0., 0., 0., 0.,
          5.53182662e-02, 7.01259434e-01, 7.01259434e-01, 8.00635889e-02,
          0., 0., 0., 0., 0., 6.27906155e-03, 6.85644269e-01,
          6.85644269e-01, 2.29999691e-01, 0., 0., 0., 0., 0., 0.,
          9.43701342e-02, 7.01459885e-01, 7.01459885e-01, 0., 0., 0., 0.,
          0., 0., 0., 7.04615593e-01, 7.04615593e-01, 0., 0., 0. ]
      - [ 6.36277139e-01, 6.36277139e-01, 0., 0., 0., 2.18634901e-04,
          3.17411286e-05, 0., 4.28894103e-01, 6.27015173e-01,
          6.27015173e-01, 1.35447655e-04, 2.05916236e-04, 5.66769615e-02,
          8.93818866e-03, 8.05889213e-05, 0., 4.51831073e-01,
          6.45654261e-01, 6.45654261e-01, 8.21059383e-03, 1.15420793e-04,
          1.38514295e-01, 4.21316773e-02, 7.56504461e-02, 1.45793008e-02,
          3.64487112e-01, 4.37940419e-01, 4.04415280e-01, 1.61784166e-03,
          0., 4.37940419e-01, 4.37940419e-01, 4.37940419e-01,
          8.44817385e-02, 2.40346953e-01, 3.26181203e-01, 7.91926309e-02,
          0., 0., 4.67186362e-01, 4.67186362e-01, 4.67186362e-01,
          4.49134737e-01, 1.61730260e-01, 6.39692783e-01, 6.39692783e-01,
          8.22606981e-02, 1.82310231e-02, 8.50922018e-02, 1.81761786e-01,
          1.06583595e-01, 6.66584447e-02, 3.34692448e-01, 4.56540912e-01,
          3.57868791e-01, 7.25421235e-02, 7.30611607e-02, 4.56540912e-01,
          4.56540912e-01, 9.12254751e-02, 1.66369647e-01, 4.42130834e-01,
          3.69283587e-01, 3.69283587e-01, 3.69283587e-01, 3.69283587e-01,
          3.69283587e-01, 3.69283587e-01, 3.69283587e-01, 1.48725376e-01,
          1.39995724e-01, 3.41470465e-02, 5.97341284e-02, 1.67751759e-01,
          2.96720378e-02, 2.30238378e-01, 5.50052643e-01, 5.50052643e-01,
          5.50052643e-01, 8.27113073e-03, 2.05438497e-04, 0., 0., 0.,
          5.32452762e-01, 5.32452762e-01, 5.32452762e-01, 3.79689962e-01,
          2.80728942e-04, 3.45476419e-01, 1.39890388e-01, 2.34524935e-01,
          5.38178563e-01, 5.38178563e-01, 1.51316285e-01, 2.66719669e-01,
          1.80129483e-01, 3.08131844e-01, 3.04605633e-01, 5.68324961e-02,
          1.00758620e-01, 4.15599316e-01, 4.15599316e-01, 4.15599316e-01,
          1.61454558e-01, 4.15599316e-01, 4.15599316e-01, 3.92919123e-01,
          3.92919123e-01, 3.92919123e-01, 1.23804122e-01, 2.15830743e-01,
          1.61037892e-01, 3.92919123e-01, 3.69193673e-01, 3.92919123e-01,
          7.27889016e-02, 9.92552042e-02, 2.59416878e-01, 8.40162579e-03,
          4.13472578e-03, 2.91364384e-04, 6.43479645e-01, 6.43479645e-01,
          2.87938893e-01, 2.73857355e-01, 0., 0., 0., 0., 0.,
          5.53616464e-01, 5.53616464e-01, 5.53616464e-01, 9.03676078e-03,
          6.69667133e-05, 1.72229446e-02, 7.04174697e-01, 7.04174697e-01,
          6.48650341e-04, 5.72132296e-04, 2.49749189e-03, 2.93502901e-02,
          8.06821436e-02, 5.17446967e-03, 1.41332932e-02, 6.75682068e-01,
          6.75682068e-01, 2.72741960e-03, 3.67627217e-04, 4.98320200e-02,
          2.66336799e-01, 2.52596289e-01, 5.52944057e-02, 1.09901600e-01,
          6.14324689e-01, 6.14324689e-01, 9.49777104e-03, 1.67549253e-01,
          1.62547365e-01, 3.24886501e-01, 1.41933739e-01, 6.43804623e-03,
          1.84034910e-02, 4.41584319e-01, 4.41584319e-01, 8.95588286e-03,
          4.41584319e-01, 4.41584319e-01, 4.41584319e-01, 2.68960476e-01,
          0., 0., 1.23618960e-01, 1.22925334e-01, 2.14425344e-02,
          5.45088589e-01, 5.45088589e-01, 5.45088589e-01, 0., 0.,
          6.33012271e-03, 7.04601467e-01, 7.04601467e-01, 0., 0., 0., 0.,
          0., 0., 5.95505442e-03, 7.04603016e-01, 7.04603016e-01,
          1.66727812e-04, 0., 0., 0., 1.55088049e-03, 0., 4.91897902e-03,
          7.04593360e-01, 7.04593360e-01, 2.73573445e-03, 1.19902543e-03,
          1.61629007e-03, 4.98946663e-03, 1.99353378e-02, 0.,
          4.76879161e-03, 6.73469424e-01, 6.73469424e-01, 4.90642115e-02,
          1.77507043e-01, 1.11822978e-01, 1.98277444e-01, 1.84553638e-02,
          0., 0., 4.73464102e-01, 4.73464102e-01, 2.26913989e-01,
          4.73464102e-01, 4.73464102e-01, 2.16257587e-01 ]
      - [ 6.61637187e-01, 6.61637187e-01, 0., 0., 0., 0., 0., 0.,
          3.43317807e-01, 6.49781525e-01, 6.49781525e-01, 0.,
          1.69917662e-03, 4.84392829e-02, 1.32955043e-02, 4.96056047e-04,
          1.65352001e-04, 3.82824361e-01, 6.68941438e-01, 6.68941438e-01,
          1.59924868e-02, 7.93940946e-03, 1.05027147e-01, 4.28026505e-02,
          6.31747469e-02, 5.99015597e-03, 2.84864753e-01, 4.96163130e-01,
          3.93847615e-01, 3.99978971e-03, 5.65469265e-04, 2.81386822e-01,
          4.96163130e-01, 4.68785644e-01, 6.84402287e-02, 2.09604457e-01,
          3.95834893e-01, 4.91700806e-02, 0., 0., 3.71287316e-01,
          4.73049313e-01, 4.73049313e-01, 4.73049313e-01, 1.64288893e-01,
          6.62572563e-01, 6.62572563e-01, 9.47757587e-02, 7.15134712e-03,
          6.69179559e-02, 1.65083736e-01, 8.76489058e-02, 7.10612088e-02,
          2.48765290e-01, 4.68229979e-01, 3.80046695e-01, 8.57770965e-02,
          6.80025294e-02, 4.68229979e-01, 4.68229979e-01, 8.95456225e-02,
          1.76155791e-01, 3.77012581e-01, 3.75162482e-01, 3.36851507e-01,
          3.75162482e-01, 3.75162482e-01, 3.75162482e-01, 3.75162482e-01,
          3.75162482e-01, 1.40678808e-01, 1.36055231e-01, 4.94027324e-02,
          4.91762571e-02, 1.63541779e-01, 2.79223789e-02, 1.32744119e-01,
          5.76586962e-01, 5.76586962e-01, 5.28459728e-01, 7.89164566e-03,
          7.99259695e-04, 0., 0., 0., 5.55508971e-01, 5.55508971e-01,
          5.55508971e-01, 2.62070805e-01, 5.04558266e-04, 3.64678383e-01,
          1.91798076e-01, 3.60376269e-01, 5.04222989e-01, 5.04222989e-01,
          1.51325852e-01, 2.14337155e-01, 1.92283079e-01, 2.84643680e-01,
          2.79082358e-01, 5.13160191e-02, 1.21422082e-01, 4.17667150e-01,
          4.17667150e-01, 4.17667150e-01, 1.68329403e-01, 4.17667150e-01,
          4.17667150e-01, 3.91872257e-01, 3.91872257e-01, 3.91872257e-01,
          1.09727502e-01, 2.04615280e-01, 1.44203603e-01, 3.91872257e-01,
          3.91872257e-01, 3.91872257e-01, 6.35504946e-02, 8.68282542e-02,
          2.56614476e-01, 9.03135911e-03, 2.77392170e-03, 1.89306843e-03,
          6.54364467e-01, 6.54364467e-01, 2.44048700e-01, 2.07183152e-01,
          0., 0., 0., 0., 9.05293913e-04, 5.63160896e-01, 5.63160896e-01,
          5.63160896e-01, 5.31989196e-03, 1.33813708e-03, 2.98166312e-02,
          7.04029977e-01, 7.04029977e-01, 4.64627193e-03, 3.71568225e-04,
          3.59363272e-03, 2.64967438e-02, 7.27808923e-02, 5.29427268e-03,
          3.43577727e-03, 6.77655458e-01, 6.77655458e-01, 5.05589228e-03,
          1.72050914e-03, 5.45247979e-02, 2.57803619e-01, 2.57190287e-01,
          5.86389229e-02, 1.12498432e-01, 6.07873976e-01, 6.07873976e-01,
          1.60683133e-02, 1.87475592e-01, 1.95397496e-01, 3.14773411e-01,
          9.81423408e-02, 1.07681202e-02, 1.79590862e-02, 4.43912894e-01,
          4.43912894e-01, 1.42178545e-02, 4.43912894e-01, 4.43912894e-01,
          4.43912894e-01, 1.99389622e-01, 1.10191107e-03, 0.,
          9.97964069e-02, 1.11814320e-01, 3.01768221e-02, 5.57167292e-01,
          5.57167292e-01, 5.57167292e-01, 0., 0., 0., 7.04615593e-01,
          7.04615593e-01, 0., 0., 0., 0., 0., 0., 0., 7.04614997e-01,
          7.04614997e-01, 1.31678488e-03, 0., 0., 0., 2.08191387e-03,
          8.45561299e-05, 0., 7.04587281e-01, 7.04587281e-01,
          4.27405071e-03, 1.47081411e-03, 5.10089984e-03, 5.42927207e-03,
          1.78110953e-02, 2.62289029e-03, 0., 6.62206233e-01,
          6.62206233e-01, 9.51234922e-02, 1.83437854e-01, 1.46737397e-01,
          2.27598339e-01, 1.53623931e-02, 5.46896656e-04, 0.,
          4.45768595e-01, 4.45768595e-01, 3.83879811e-01, 4.45768595e-01,
          4.45768595e-01, 2.30453148e-01 ]
      - [ 5.62232971e-01, 5.62232971e-01, 9.96557921e-02, 2.06695148e-03,
          1.06016651e-01, 5.62232971e-01, 1.55054167e-01, 3.03782476e-03,
          2.90132593e-02, 5.53542793e-01, 2.42870331e-01, 7.88533036e-03,
          1.27953570e-02, 5.53542793e-01, 5.53542793e-01, 5.93072474e-02,
          4.88940452e-04, 1.11865640e-01, 1.97727084e-01, 3.33513599e-03,
          7.37714674e-03, 6.11483872e-01, 6.11483872e-01, 3.19365382e-01,
          6.49425713e-03, 1.81436837e-02, 3.23330015e-01, 6.44251406e-02,
          3.35719646e-03, 1.53229743e-01, 4.91709620e-01, 4.91709620e-01,
          3.23721417e-03, 1.79934315e-02, 4.91709620e-01, 4.91709620e-01,
          2.47341823e-02, 2.55919783e-03, 8.47529545e-02, 2.39883542e-01,
          3.23688835e-02, 1.34957088e-02, 2.02985778e-01, 6.65424049e-01,
          6.65424049e-01, 8.99409428e-02, 5.50762832e-01, 2.43941754e-01,
          3.63416970e-03, 4.74179573e-02, 5.50762832e-01, 5.50762832e-01,
          1.20881230e-01, 3.16944788e-03, 3.13709374e-03, 7.29612494e-03,
          8.03889800e-03, 2.92054610e-03, 5.74959517e-01, 5.74959517e-01,
          5.74959517e-01, 4.88588586e-02, 0., 3.58682382e-03,
          2.40343399e-02, 1.04960971e-01, 5.54864109e-01, 5.54864109e-01,
          4.86560494e-01, 3.47938359e-01, 9.64424312e-02, 0.,
          8.98292940e-03, 1.24441214e-01, 6.41404808e-01, 6.41404808e-01,
          3.90694678e-01, 5.76795079e-03, 1.22768199e-02, 4.62476835e-02,
          1.62681323e-02, 5.24081348e-04, 1.05406612e-01, 4.92149830e-01,
          4.92149830e-01, 7.55520770e-03, 2.50267796e-03, 4.92149830e-01,
          4.92149830e-01, 1.22738332e-01, 1.00200414e-03, 1.20546825e-01,
          4.02032495e-01, 2.74820272e-02, 1.44407107e-02, 1.63594306e-01,
          6.27439022e-01, 6.27439022e-01, 4.98638004e-02, 0.,
          6.77793622e-02, 2.19504565e-01, 1.13412656e-01, 4.87008184e-01,
          2.63482511e-01, 5.52503943e-01, 5.52503943e-01, 1.08272195e-01,
          5.57564236e-02, 1.83565423e-01, 4.15581435e-01, 1.86170042e-01,
          4.75104392e-01, 2.68930584e-01, 4.75104392e-01, 4.75104392e-01,
          3.98270562e-02, 1.11251459e-01, 6.27167165e-01, 6.27167165e-01,
          4.32148725e-01, 8.05128366e-02, 6.20186678e-04, 1.53814042e-02,
          5.12713427e-03, 3.44377309e-02, 1.42896390e-02, 5.01252711e-01,
          5.01252711e-01, 9.52123925e-02, 3.55484989e-03, 9.82979238e-02,
          5.01252711e-01, 4.71469432e-01, 1.66036014e-03, 1.99993319e-05,
          2.75832936e-02, 4.39267725e-01, 4.39267725e-01, 1.09990522e-01,
          3.99905801e-01, 4.39267725e-01, 4.39267725e-01, 2.25841060e-01,
          3.10035013e-02, 5.22992061e-03, 2.11239345e-02, 4.01359648e-02,
          1.74716830e-01, 5.13149619e-01, 5.32991946e-01, 5.32991946e-01,
          3.60030949e-01, 7.29246587e-02, 4.45157439e-01, 4.45157439e-01,
          4.80947904e-02, 4.45157439e-01, 2.11563811e-01, 4.45157439e-01,
          3.70276630e-01, 1.15748055e-01, 3.88928860e-01, 5.84253609e-01,
          5.84253609e-01, 3.77144963e-01, 4.12949212e-02, 1.14437260e-01,
          5.00672050e-02, 4.23131697e-03, 2.51357462e-02, 1.01529807e-01,
          4.97132629e-01, 4.61060286e-01, 1.20000914e-01, 3.71853709e-02,
          4.97132629e-01, 4.97132629e-01, 1.22220024e-01, 2.58479547e-03,
          0., 4.26602690e-03, 3.85690391e-01, 4.73151207e-01,
          4.73151207e-01, 4.73151207e-01, 3.57964456e-01, 2.13237777e-01,
          3.56868617e-02, 1.00804726e-02, 3.17066617e-04, 5.08363592e-04,
          8.35602451e-03, 4.96405810e-01, 4.96405810e-01, 4.96405810e-01,
          4.96405810e-01, 9.58937183e-02, 1.23370150e-02, 5.75994849e-01,
          5.75994849e-01, 1.83292940e-01, 2.16093957e-01, 2.17369586e-01,
          4.21951383e-01, 1.55390993e-01, 2.87106913e-02, 6.78687021e-02,
          4.56244558e-01, 4.56244558e-01, 4.56244558e-01, 4.56244558e-01,
          3.90776485e-01, 7.41151571e-02, 1.01516407e-03, 0.,
          1.64937433e-02, 1.00433081e-01, 1.54950991e-01, 4.89876419e-01,
          4.89876419e-01, 4.89876419e-01, 4.89876419e-01, 2.85564736e-02,
          2.73838942e-03 ]
      - [ 6.30721271e-01, 6.30721271e-01, 7.34503120e-02, 0.,
          1.02530122e-01, 4.13626969e-01, 7.39521384e-02, 7.35685579e-04,
          7.49673396e-02, 5.19922435e-01, 2.61759728e-01, 0.,
          8.19857866e-02, 5.19922435e-01, 5.19922435e-01, 4.68584448e-02,
          1.47914281e-04, 3.26211572e-01, 3.68418932e-01, 1.49027200e-03,
          3.89512777e-02, 5.21038353e-01, 5.21038353e-01, 1.27475202e-01,
          0., 1.63864613e-01, 5.21038353e-01, 8.82501677e-02,
          3.43969295e-04, 8.34663287e-02, 4.94212091e-01, 1.61936268e-01,
          0., 6.01443872e-02, 5.93813837e-01, 5.93813837e-01,
          9.80233867e-03, 1.01453101e-04, 6.03371440e-03, 3.23908799e-03,
          0., 0., 3.97125244e-01, 6.46411180e-01, 6.46411180e-01,
          1.13748461e-01, 5.33859193e-01, 2.76806831e-01, 0.,
          7.00268745e-02, 5.33859193e-01, 5.33859193e-01, 2.12573215e-01,
          0., 3.96892801e-03, 4.14062897e-03, 0., 6.00934550e-02,
          5.73918045e-01, 5.73918045e-01, 5.73918045e-01, 4.97902595e-02,
          0., 0., 3.02355289e-02, 5.10887325e-01, 5.98481596e-01,
          5.98481596e-01, 1.25464231e-01, 0., 2.28510224e-04,
          1.54113781e-03, 0., 1.83425635e-01, 5.44971168e-01,
          5.44971168e-01, 1.10262975e-01, 0., 2.21823305e-01,
          5.44971168e-01, 9.25669074e-02, 0., 3.26355845e-02,
          1.79582164e-01, 5.52716926e-02, 0., 0., 6.85038328e-01,
          6.85038328e-01, 1.35042578e-01, 0., 1.22746766e-01,
          4.35800195e-01, 3.59914899e-02, 0., 3.66406351e-01,
          5.68390787e-01, 5.68390787e-01, 8.74659568e-02, 0., 0., 0., 0.,
          0., 5.08809149e-01, 5.97004354e-01, 5.97004354e-01,
          1.49411291e-01, 1.85234547e-01, 5.74003339e-01, 5.74003339e-01,
          5.48631728e-01, 0., 0., 0., 0., 0., 1.01616390e-01,
          5.83503425e-01, 5.83503425e-01, 3.95680726e-01, 0.,
          4.04662304e-02, 3.68137300e-01, 9.57570300e-02, 0.,
          3.64263495e-03, 1.66856050e-01, 2.85514474e-01, 2.33673975e-02,
          0., 2.00468436e-01, 6.49388313e-01, 6.49388313e-01, 0., 0.,
          2.58514602e-02, 4.33192581e-01, 4.33192581e-01, 2.12701142e-01,
          4.33192581e-01, 4.33192581e-01, 4.33192581e-01, 1.07161395e-01,
          0., 0., 0., 0., 4.86763120e-02, 5.67460775e-01, 5.67460775e-01,
          5.67460775e-01, 1.61024243e-01, 2.37340137e-01, 5.59133887e-01,
          5.59133887e-01, 5.59133887e-01, 1.17737968e-02, 0.,
          7.05979485e-03, 2.35326518e-03, 0., 1.76155746e-01,
          4.28069890e-01, 4.28069890e-01, 4.28069890e-01, 2.19463244e-01,
          4.28069890e-01, 4.28069890e-01, 1.75958313e-02, 0.,
          3.17535386e-03, 9.37672108e-02, 6.21475540e-02, 4.58417088e-02,
          7.13802502e-02, 6.70047522e-01, 6.70047522e-01, 2.74812967e-01,
          0., 0., 8.31064396e-03, 3.04161787e-01, 5.31774580e-01,
          5.31774580e-01, 5.31774580e-01, 2.18004972e-01, 7.88397938e-02,
          3.36966128e-03, 0., 0., 0., 0., 4.53317225e-01, 5.75625837e-01,
          5.75625837e-01, 3.54920864e-01, 9.82113928e-03, 3.04145478e-02,
          3.74305725e-01, 6.35424614e-01, 6.35424614e-01, 2.12296844e-01,
          0., 4.95643169e-03, 1.65214390e-03, 0., 1.15847904e-02,
          8.76849666e-02, 3.95296276e-01, 4.99764681e-01, 4.99764681e-01,
          4.99764681e-01, 2.85697997e-01, 3.03276419e-03, 0., 0.,
          2.36709882e-03, 2.12532729e-02, 1.91250145e-01, 5.64128339e-01,
          5.64128339e-01, 5.64128339e-01, 5.10911904e-02, 0. ]
      - [ 4.13476199e-01, 4.13476199e-01, 1.66570127e-01, 1.77233681e-01,
          4.13476199e-01, 4.13476199e-01, 3.06790143e-01, 6.22044057e-02,
          3.93538415e-01, 4.07202154e-01, 3.14941794e-01, 2.41400704e-01,
          4.07202154e-01, 3.74593586e-01, 1.54165477e-01, 1.05488196e-01,
          4.07202154e-01, 4.07202154e-01, 3.91873091e-01, 3.91873091e-01,
          6.40032068e-02, 2.25400865e-01, 3.91873091e-01, 3.91873091e-01,
          3.91873091e-01, 1.40698597e-01, 3.91873091e-01, 2.45317891e-01,
          6.31222054e-02, 4.01778609e-01, 4.01778609e-01, 4.01778609e-01,
          2.06030771e-01, 2.86778897e-01, 4.01778609e-01, 4.01778609e-01,
          1.09143583e-02, 5.00756549e-03, 1.07716806e-01, 5.70933595e-02,
          9.09492653e-03, 0., 6.34967566e-01, 6.34967566e-01,
          4.14973766e-01, 1.09674633e-01, 4.08500016e-01, 4.08500016e-01,
          2.48579830e-01, 1.77595317e-01, 4.08500016e-01, 4.08500016e-01,
          4.08500016e-01, 2.37059921e-01, 2.52234161e-01, 4.33837861e-01,
          4.33837861e-01, 4.33837861e-01, 1.69891745e-01, 1.86712429e-01,
          4.33837861e-01, 2.74374574e-01, 2.00442344e-01, 1.27926931e-01,
          2.03116000e-01, 3.50850433e-01, 1.91980362e-01, 1.76683918e-01,
          4.78073746e-01, 4.78073746e-01, 4.78073746e-01, 2.46516600e-01,
          2.07011312e-01, 4.38695103e-01, 4.38695103e-01, 4.38695103e-01,
          1.65446088e-01, 1.59201548e-01, 4.38695103e-01, 3.48289460e-01,
          9.44849029e-02, 7.76054943e-03, 1.52852818e-01, 3.87057960e-01,
          4.33728211e-02, 1.60665950e-03, 1.03694715e-01, 6.35506809e-01,
          6.35506809e-01, 6.54215692e-03, 3.28734368e-01, 2.22250566e-01,
          3.87727946e-01, 3.87727946e-01, 3.87727946e-01, 1.37612611e-01,
          2.60888666e-01, 3.87727946e-01, 3.87727946e-01, 3.79521698e-01,
          3.79521698e-01, 2.80359596e-01, 3.79521698e-01, 3.79521698e-01,
          3.79521698e-01, 1.07861340e-01, 2.04334572e-01, 3.79521698e-01,
          3.88528675e-01, 1.75944075e-01, 1.60410270e-01, 3.88528675e-01,
          3.88528675e-01, 1.83585003e-01, 3.88528675e-01, 3.88528675e-01,
          3.88528675e-01, 3.78470689e-01, 3.78470689e-01, 3.75334501e-01,
          5.73567934e-02, 3.33402783e-01, 3.78470689e-01, 3.78470689e-01,
          1.57147467e-01, 3.78470689e-01, 3.49646099e-02, 1.41639009e-01,
          1.02709509e-01, 1.24008860e-03, 2.58514173e-02, 6.66609228e-01,
          6.66609228e-01, 2.68518060e-01, 2.06096657e-03, 2.81316228e-02,
          4.19427035e-03, 1.75044835e-01, 6.24271333e-01, 6.24271333e-01,
          4.26069856e-01, 6.91807969e-03, 4.93990781e-04, 3.61162163e-02,
          2.93526929e-02, 1.02329615e-03, 5.42830490e-02, 5.74169159e-01,
          5.74169159e-01, 5.74169159e-01, 2.52775867e-02, 1.21182494e-03,
          2.83938907e-02, 4.89063300e-02, 3.81325535e-03, 1.39999032e-01,
          6.62958324e-01, 6.62958324e-01, 2.89666057e-01, 2.56055454e-03,
          1.53580522e-02, 9.05485898e-02, 8.73654783e-02, 1.15999086e-02,
          8.22481699e-03, 2.44195998e-01, 6.59636915e-01, 6.59636915e-01,
          2.27226511e-01, 7.54962675e-03, 6.33820072e-02, 6.18729275e-03,
          2.54825503e-03, 2.21481198e-03, 2.20776506e-04, 4.35720146e-01,
          6.32150650e-01, 6.32150650e-01, 6.74943998e-02, 1.56672241e-03,
          0., 0., 0., 4.22828108e-01, 8.76041055e-01, 2.12195799e-01, 0.,
          0., 0., 0., 0., 0., 3.34543854e-01, 8.73776436e-01,
          3.40406328e-01, 0., 0., 0., 0., 0., 0., 7.02523351e-01,
          7.02523351e-01, 7.68704042e-02, 0., 0., 0., 0., 0., 0.,
          1.40059888e-01, 6.97645724e-01, 6.97645724e-01, 0., 0., 0., 0.,
          0., 0., 0., 7.10639417e-01, 6.98496819e-01, 0., 0., 0. ]
      - [ 5.15067160e-01, 5.15067160e-01, 1.59038797e-01, 5.52053843e-03,
          2.86536485e-01, 5.15067160e-01, 2.95573413e-01, 3.18799987e-02,
          5.62727153e-02, 5.56052625e-01, 1.09368637e-01, 1.67091042e-02,
          1.13423064e-01, 5.60695529e-01, 5.60695529e-01, 1.07390456e-01,
          1.61537807e-02, 1.39815599e-01, 1.60615563e-01, 2.00276612e-03,
          4.96605970e-02, 5.89761317e-01, 5.89761317e-01, 1.32130086e-01,
          1.68608334e-02, 6.59092143e-02, 4.98116434e-01, 6.73545375e-02,
          2.06336286e-02, 2.80099154e-01, 5.00407040e-01, 3.76156002e-01,
          3.78990103e-03, 1.37313634e-01, 5.00407040e-01, 5.00407040e-01,
          4.51672077e-03, 5.11701824e-03, 3.75659317e-02, 3.18169147e-02,
          4.01340425e-04, 1.40356642e-04, 5.80923557e-01, 5.80923557e-01,
          5.62836230e-01, 3.13381664e-02, 3.97778094e-01, 4.37957883e-01,
          3.43198851e-02, 1.35975286e-01, 4.49660033e-01, 4.49660033e-01,
          4.49660033e-01, 1.35064125e-01, 1.04394071e-01, 3.61110258e-04,
          3.72334607e-02, 1.62685767e-01, 4.49458033e-01, 4.49458033e-01,
          4.49458033e-01, 4.49458033e-01, 3.85628343e-01, 4.34206337e-01,
          4.14233506e-01, 3.56114268e-01, 4.90750134e-01, 4.90750134e-01,
          7.40515664e-02, 3.92440073e-02, 6.53469935e-02, 1.23253055e-01,
          1.81885555e-01, 4.79091018e-01, 4.79091018e-01, 4.79091018e-01,
          1.63978919e-01, 3.01966351e-02, 3.62322092e-01, 3.37035745e-01,
          2.96041872e-02, 5.24538895e-03, 1.21019520e-01, 2.77315170e-01,
          6.08542971e-02, 1.50385749e-04, 1.63482890e-01, 6.58952236e-01,
          6.58952236e-01, 5.45738041e-02, 6.02847077e-02, 3.76904309e-02,
          4.53399330e-01, 4.53399330e-01, 9.89382342e-02, 2.56959368e-02,
          3.97093832e-01, 4.53399330e-01, 4.53399330e-01, 5.66890001e-01,
          3.54847196e-03, 2.75318138e-02, 7.53082186e-02, 1.02281153e-01,
          9.85715538e-03, 1.15089908e-01, 5.66890001e-01, 5.66890001e-01,
          5.78483403e-01, 5.59626877e-01, 3.51327322e-02, 2.05748565e-02,
          8.61182883e-02, 3.27942707e-02, 2.48980336e-02, 3.13975178e-02,
          5.78483403e-01, 4.54024225e-01, 4.54024225e-01, 3.93098563e-01,
          3.64361927e-02, 9.44809541e-02, 4.54024225e-01, 4.54024225e-01,
          2.26829536e-02, 7.49510229e-02, 1.50354747e-02, 1.11616522e-01,
          8.66502970e-02, 3.58710065e-03, 8.37143697e-03, 6.67992234e-01,
          6.67992234e-01, 2.83950180e-01, 8.53759644e-04, 1.83926132e-02,
          4.78141801e-03, 2.16666639e-01, 6.81655884e-01, 6.81655884e-01,
          0., 5.07603727e-05, 4.82007451e-02, 1.19401820e-01,
          2.86749691e-01, 1.80853589e-03, 3.61350086e-03, 5.48383892e-01,
          5.48383892e-01, 8.35558772e-02, 4.36792523e-03, 5.57368658e-02,
          5.48383892e-01, 5.39607465e-01, 4.73339446e-02, 5.22263441e-03,
          1.17651105e-01, 5.39607465e-01, 5.39607465e-01, 2.70740245e-03,
          2.74539948e-03, 3.23972046e-01, 1.59737974e-01, 5.33199832e-02,
          9.21134662e-04, 1.66732143e-03, 6.79463923e-01, 6.79463923e-01,
          2.01577663e-01, 2.58284342e-03, 2.95191463e-02, 1.44137617e-03,
          4.92171990e-03, 5.63289796e-04, 8.31578451e-04, 2.15731367e-01,
          6.87050104e-01, 6.87050104e-01, 4.99744378e-02, 8.60100903e-04,
          0., 0., 0., 7.04615593e-01, 7.04615593e-01, 0., 0., 0., 0.,
          2.20522357e-04, 3.85696949e-05, 0., 6.98312342e-01,
          6.98312342e-01, 1.33222938e-01, 0., 0., 5.55333274e-04,
          3.89701396e-04, 7.32367334e-05, 0., 1.70702800e-01,
          6.94236994e-01, 6.94236994e-01, 0., 0., 3.58881836e-04, 0., 0.,
          0., 3.24500637e-04, 7.04615593e-01, 7.04615593e-01, 0., 0., 0.,
          0., 0., 0., 0., 6.37311816e-01, 7.65631795e-01, 0., 0., 0. ]
      - [ 8.99361446e-02, 1.74911693e-01, 4.24977303e-01, 0., 0., 0.,
          6.16406322e-01, 6.16406322e-01, 1.21011451e-01, 5.17017424e-01,
          5.17017424e-01, 0., 0., 0., 0., 5.17017424e-01, 3.38881224e-01,
          2.79419065e-01, 6.84495151e-01, 6.84495151e-01, 0.,
          9.35140357e-04, 5.25069945e-02, 5.60928844e-02, 3.65160144e-04,
          0., 2.24042580e-01, 5.28879106e-01, 5.28879106e-01, 0.,
          2.14067963e-03, 2.75135428e-01, 5.28879106e-01, 1.96548566e-01,
          5.10442108e-02, 1.96565598e-01, 4.55180317e-01, 2.07800701e-01,
          0., 1.67437043e-04, 2.19627529e-01, 4.55180317e-01,
          4.55180317e-01, 4.55180317e-01, 2.74370968e-01, 4.19707447e-01,
          3.82955581e-01, 3.78510356e-01, 7.99521571e-04, 2.68819779e-02,
          2.32720170e-02, 4.19707447e-01, 4.19707447e-01, 4.19707447e-01,
          5.30807436e-01, 5.30807436e-01, 0., 5.32591948e-05,
          2.70111054e-01, 5.15803754e-01, 1.59596458e-01, 7.29448348e-02,
          2.47751147e-01, 4.97075558e-01, 4.97075558e-01, 0.,
          1.62767188e-03, 4.97075558e-01, 4.97075558e-01, 6.73186558e-04,
          0., 8.18281248e-02, 2.96242177e-01, 1.05330743e-01, 0.,
          2.05428060e-03, 6.67802989e-01, 6.67802989e-01, 4.09924686e-02,
          2.88892235e-03, 2.94045396e-02, 2.73354091e-02, 3.41698201e-03,
          0., 2.79102882e-04, 5.70207775e-01, 5.70207775e-01,
          5.70207775e-01, 1.34608686e-01, 4.12077084e-03, 4.52459872e-01,
          1.95262134e-01, 3.99700046e-01, 1.15665898e-01, 4.58202899e-01,
          4.58202899e-01, 2.00373635e-01, 1.46614164e-01, 3.12877506e-01,
          3.96417797e-01, 9.73200873e-02, 0., 3.65151674e-04,
          6.40342772e-01, 6.40342772e-01, 3.42290662e-02, 1.01926448e-02,
          7.50685483e-02, 5.88117540e-02, 7.94778578e-03, 0.,
          2.32103965e-04, 7.03335702e-01, 7.03335702e-01, 2.79344944e-03,
          0., 9.34321899e-03, 3.62456369e-04, 0., 0., 2.14243104e-04,
          7.04615355e-01, 7.04615355e-01, 0., 0., 6.84990722e-04, 0., 0.,
          0., 0., 7.04615593e-01, 7.04615593e-01, 0., 0., 0.,
          8.03095580e-04, 2.29556803e-02, 1.10366918e-01, 2.31910393e-01,
          6.78705573e-01, 6.78705573e-01, 7.38272220e-02, 0.,
          8.03095580e-04, 0., 0., 0., 1.84564677e-04, 7.03141391e-01,
          7.03141391e-01, 6.45409673e-02, 0., 0., 0., 0., 0., 0.,
          7.04603314e-01, 7.04603314e-01, 5.89128723e-03, 0., 0., 0., 0.,
          0., 0., 0., 0., 0., 0., 0., 0., 0., 0., 0., 0., 0., 0., 0., 0.,
          0., 0., 0., 0., 9.95024860e-01, 0., 0., 0., 0., 0., 0., 0., 0.,
          8.98006916e-01, 0., 0., 0., 0., 0., 0., 0., 0., 0., 0., 0., 0.,
          0., 0., 0., 0., 0., 0., 0., 0., 0., 0., 0., 0., 0., 0., 0., 0.,
          0., 0., 0. ]
      - [ 3.93768042e-01, 1.92586154e-01, 3.93768042e-01, 7.82918483e-02,
          3.93768042e-01, 3.93768042e-01, 3.93768042e-01, 1.50091276e-01,
          3.93768042e-01, 4.20666218e-01, 1.67343497e-01, 4.20666218e-01,
          4.20666218e-01, 4.20666218e-01, 1.52456850e-01, 2.38903105e-01,
          5.17277494e-02, 4.20666218e-01, 4.22285616e-01, 4.70226407e-02,
          2.32803211e-01, 1.36711374e-01, 4.22285616e-01, 4.22285616e-01,
          4.22285616e-01, 1.70462415e-01, 4.22285616e-01, 3.96799177e-01,
          1.39133051e-01, 3.96799177e-01, 3.96799177e-01, 3.96799177e-01,
          1.02069251e-01, 3.92208278e-01, 1.58696324e-01, 3.96799177e-01,
          1.18474826e-01, 4.68335636e-02, 2.05626994e-01, 8.70525241e-02,
          4.65074033e-02, 0., 6.43966615e-01, 6.43966615e-01,
          3.09728295e-01, 0., 1.86419874e-01, 5.28347909e-01,
          2.87800990e-02, 2.81232655e-01, 2.06389859e-01, 5.28347909e-01,
          5.28347909e-01, 0., 0., 5.23581207e-01, 5.23581207e-01,
          1.77429020e-01, 3.12166363e-01, 4.84888554e-02, 5.23581207e-01,
          2.02680394e-01, 3.01774180e-05, 0., 1.82430893e-01,
          5.26870787e-01, 4.55605499e-02, 2.85337538e-01, 2.12568671e-01,
          5.26870787e-01, 5.26870787e-01, 2.06668847e-05, 0.,
          5.14042079e-01, 5.14042079e-01, 2.34179512e-01, 3.27591926e-01,
          4.05714810e-02, 5.14042079e-01, 1.95821136e-01, 0., 0.,
          1.72458798e-01, 5.44890463e-01, 2.67261639e-02, 5.59915090e-03,
          0., 5.77425659e-01, 5.77425659e-01, 0., 0., 1.80265620e-01,
          5.53887904e-01, 4.19305079e-02, 9.48120728e-02, 1.75642356e-01,
          5.53887904e-01, 5.53887904e-01, 0., 0., 4.99936968e-01,
          4.99936968e-01, 2.90277272e-01, 3.33628058e-01, 1.02601208e-01,
          4.99936968e-01, 1.97738230e-01, 0., 0., 1.74400225e-01,
          4.95272696e-01, 9.45763662e-02, 3.44869584e-01, 3.17605376e-01,
          4.95272696e-01, 4.95272696e-01, 0., 0., 5.57512760e-01,
          5.57512760e-01, 1.35066718e-01, 7.10110590e-02, 5.21143079e-02,
          5.57512760e-01, 1.89656660e-01, 0., 0., 1.72546327e-01,
          5.50736904e-01, 5.73779084e-02, 8.93493593e-02, 1.32171690e-01,
          5.62385917e-01, 5.62385917e-01, 0., 0., 5.86717539e-02,
          2.58128047e-01, 2.43576556e-01, 4.94073838e-01, 4.94073838e-01,
          4.94073838e-01, 3.65152717e-01, 0., 0., 2.63645023e-01,
          4.58467960e-01, 4.58467960e-01, 4.58467960e-01, 3.27507585e-01,
          4.20401037e-01, 1.06466554e-01, 0., 0., 9.92473885e-02,
          3.52702558e-01, 2.60851860e-01, 4.94517058e-01, 4.94517058e-01,
          4.94517058e-01, 2.43160218e-01, 0., 0., 3.84069651e-01,
          4.86668676e-01, 4.86668676e-01, 4.86668676e-01, 2.53851950e-01,
          2.63614565e-01, 5.61887398e-02, 0., 0., 5.61289079e-02,
          2.80465782e-01, 3.04403901e-01, 4.76885051e-01, 4.76885051e-01,
          4.76885051e-01, 3.72163445e-01, 0., 0., 0., 0., 1.54568896e-01,
          6.87069833e-01, 6.87069833e-01, 1.50358886e-01, 5.01196310e-02,
          0., 0., 0., 0., 0., 9.60874259e-01, 2.02641830e-01,
          1.53180033e-01, 5.10600135e-02, 0., 0., 5.45694083e-02,
          1.63708225e-01, 0., 9.80023205e-01, 0., 0., 0., 0., 0.,
          6.89103305e-02, 2.69360214e-01, 6.68011844e-01, 6.68210089e-01,
          1.52581006e-01, 0., 0., 0., 0., 4.55636298e-03, 2.59885266e-02,
          1.92426249e-01, 6.90377176e-01, 6.52418613e-01, 2.18636915e-01,
          7.28789717e-02, 0. ]
      - [ 5.59696913e-01, 5.59696913e-01, 5.26034124e-02, 0.,
          2.27320135e-01, 5.40048718e-01, 1.12181626e-01, 7.42855994e-03,
          9.56849605e-02, 5.31795144e-01, 1.47551253e-01, 0.,
          7.03030974e-02, 5.31795144e-01, 5.31795144e-01, 4.06112783e-02,
          6.30148163e-04, 3.43376517e-01, 3.81600976e-01, 1.20672269e-03,
          3.09799127e-02, 5.26704788e-01, 5.26704788e-01, 9.38575044e-02,
          0., 8.42396766e-02, 5.26704788e-01, 1.17291652e-01,
          6.20875927e-03, 1.18906684e-01, 5.38146436e-01, 3.10035765e-01,
          0., 4.20004651e-02, 5.38146436e-01, 5.38146436e-01,
          2.27405666e-03, 1.84362964e-03, 1.21193798e-02, 1.53532047e-02,
          0., 0., 4.33489382e-01, 6.34570777e-01, 6.34570777e-01,
          7.29746222e-02, 4.72128838e-01, 2.64022887e-01, 2.65459949e-03,
          1.61552474e-01, 4.72128838e-01, 4.72128838e-01, 4.72128838e-01,
          5.02219871e-02, 2.02869810e-03, 1.22826360e-03, 0.,
          6.63640648e-02, 5.75767934e-01, 5.75767934e-01, 5.26812792e-01,
          2.19976157e-01, 3.00350953e-02, 2.46953852e-02, 1.70411572e-01,
          3.95770997e-01, 6.31296396e-01, 6.31296396e-01, 1.01695366e-01,
          0., 0., 2.05136792e-04, 4.87035401e-02, 4.94850487e-01,
          4.94850487e-01, 4.94850487e-01, 2.11093187e-01, 2.34421855e-03,
          2.17966661e-01, 4.03439045e-01, 5.67110404e-02, 3.01877758e-03,
          8.24289545e-02, 2.45090261e-01, 7.59222656e-02, 0.,
          1.57027449e-02, 6.74496472e-01, 6.74496472e-01, 1.02429718e-01,
          4.17071991e-02, 5.03790416e-02, 4.42555815e-01, 4.42555815e-01,
          7.03667291e-03, 1.09425724e-01, 4.42555815e-01, 4.42555815e-01,
          4.42555815e-01, 5.67719877e-01, 2.84112804e-03, 0.,
          3.63031053e-03, 1.13736978e-03, 4.21850793e-02, 1.60034984e-01,
          5.67719877e-01, 5.67719877e-01, 5.72898209e-01, 5.72898209e-01,
          9.03102234e-02, 3.77970412e-02, 6.41570368e-04, 0., 0.,
          7.56616658e-03, 5.72898209e-01, 4.67687458e-01, 4.67687458e-01,
          4.67687458e-01, 1.22519597e-01, 6.91098953e-03, 3.79528135e-01,
          4.18439060e-01, 3.92026007e-02, 5.83570786e-02, 1.59394052e-02,
          1.32947952e-01, 1.31873786e-01, 8.01479910e-03, 1.18347490e-03,
          5.96058846e-01, 5.96058846e-01, 4.98086870e-01, 7.99200425e-05,
          3.01507264e-02, 3.33459559e-03, 3.66300136e-01, 6.16879523e-01,
          6.16879523e-01, 0., 8.98257550e-03, 1.64247707e-01,
          2.65718371e-01, 4.92073268e-01, 1.76740938e-03, 5.71449148e-03,
          4.92073268e-01, 4.92073268e-01, 2.33954247e-02, 8.34018807e-04,
          1.61112443e-01, 4.92073268e-01, 4.93164837e-01, 1.43121481e-01,
          0., 4.15233672e-02, 4.93164837e-01, 4.93164837e-01, 0.,
          4.50908067e-03, 4.93164837e-01, 3.53737146e-01, 1.93141520e-01,
          9.33176931e-03, 0., 6.03358209e-01, 6.03358209e-01,
          3.17904741e-01, 2.82772537e-03, 4.79718111e-02, 3.51408473e-03,
          1.37565285e-02, 4.12405329e-03, 0., 7.71193802e-02,
          7.00505316e-01, 7.00505316e-01, 7.36606121e-02, 1.04172221e-04,
          0., 0., 7.36782029e-02, 7.02693701e-01, 7.02693701e-01, 0., 0.,
          0., 0., 0., 0., 1.68187590e-03, 7.03364134e-01, 7.03364134e-01,
          5.94452657e-02, 0., 0., 0., 0., 0., 0., 9.66406614e-02,
          7.01305866e-01, 7.01305866e-01, 0., 0., 0., 0., 0., 0., 0.,
          7.03411579e-01, 7.03411579e-01, 5.83311841e-02, 0., 0., 0., 0.,
          0., 0., 5.11309981e-01, 8.16098332e-01, 2.53774256e-01, 0., 0. ]
      - [ 4.07435238e-01, 4.07435238e-01, 1.61834016e-01, 1.82520866e-01,
          4.07435238e-01, 4.07435238e-01, 3.42805266e-01, 7.52524883e-02,
          3.86307418e-01, 3.94138426e-01, 3.40813696e-01, 2.62313843e-01,
          3.94138426e-01, 3.94138426e-01, 1.47418335e-01, 1.12438120e-01,
          3.94138426e-01, 3.94138426e-01, 3.90308201e-01, 3.90308201e-01,
          6.63426295e-02, 2.44004712e-01, 3.90308201e-01, 3.90308201e-01,
          3.90308201e-01, 1.34603664e-01, 3.90308201e-01, 2.56117553e-01,
          6.23449571e-02, 3.97089422e-01, 3.97089422e-01, 3.97089422e-01,
          2.36744151e-01, 2.86534786e-01, 3.97089422e-01, 3.97089422e-01,
          1.15990043e-02, 9.61855147e-03, 1.14433728e-01, 6.06568344e-02,
          7.16758566e-03, 3.36075813e-04, 6.29716575e-01, 6.29716575e-01,
          4.28455651e-01, 1.01514325e-01, 4.07276839e-01, 4.07276839e-01,
          2.34390542e-01, 2.27988407e-01, 4.07276839e-01, 4.07276839e-01,
          4.07276839e-01, 2.22118482e-01, 2.33452812e-01, 4.32826102e-01,
          4.32826102e-01, 4.32826102e-01, 2.23556608e-01, 1.67545229e-01,
          4.32826102e-01, 2.77838767e-01, 1.91256806e-01, 1.23832956e-01,
          2.18832999e-01, 3.37214440e-01, 1.74159974e-01, 1.74529567e-01,
          4.82400239e-01, 4.82400239e-01, 4.82400239e-01, 2.43564174e-01,
          2.15150535e-01, 4.44527686e-01, 4.44527686e-01, 4.44527686e-01,
          1.61557496e-01, 1.65161476e-01, 4.44527686e-01, 3.09912562e-01,
          9.70864445e-02, 8.80219508e-03, 1.57581732e-01, 4.07078356e-01,
          4.36489023e-02, 1.29331159e-03, 1.23069406e-01, 6.26891792e-01,
          6.26891792e-01, 8.88641924e-03, 3.40951860e-01, 2.28873700e-01,
          3.83618593e-01, 3.83618593e-01, 3.83618593e-01, 1.45972356e-01,
          2.65352666e-01, 3.83618593e-01, 3.83618593e-01, 3.74392033e-01,
          3.74392033e-01, 3.15927267e-01, 3.74392033e-01, 3.74392033e-01,
          3.74392033e-01, 1.36562049e-01, 1.91791877e-01, 3.74392033e-01,
          3.80459547e-01, 1.82451829e-01, 2.28783339e-01, 3.80459547e-01,
          3.80459547e-01, 2.05114365e-01, 3.80459547e-01, 3.80459547e-01,
          3.80459547e-01, 3.81067872e-01, 3.81067872e-01, 3.69722128e-01,
          7.74589702e-02, 3.25496048e-01, 3.81067872e-01, 3.81067872e-01,
          1.46585330e-01, 3.81067872e-01, 3.78841199e-02, 1.47390440e-01,
          1.01281069e-01, 3.14236531e-05, 3.19727361e-02, 6.65412128e-01,
          6.65412128e-01, 2.70865560e-01, 1.69104722e-03, 3.33478227e-02,
          2.68466724e-03, 1.34177938e-01, 6.56818390e-01, 6.56818390e-01,
          3.31826836e-01, 0., 4.92502295e-04, 3.72753590e-02,
          3.20473053e-02, 1.31428698e-02, 1.19387940e-01, 5.70406020e-01,
          5.70406020e-01, 5.70406020e-01, 4.37949188e-02, 7.31058302e-04,
          2.90397722e-02, 5.32841459e-02, 1.48070334e-02, 1.74213916e-01,
          6.52697861e-01, 6.52697861e-01, 3.16514254e-01, 1.09784212e-02,
          1.03954561e-02, 8.73836949e-02, 8.77162740e-02, 1.28302779e-02,
          3.12768552e-03, 3.46791625e-01, 6.37034416e-01, 6.37034416e-01,
          2.25107744e-01, 5.76293003e-03, 5.63418008e-02, 5.57256443e-03,
          3.18048382e-03, 1.17531500e-03, 0., 4.76208568e-01,
          6.17218852e-01, 6.17218852e-01, 7.14215860e-02, 1.04597211e-03,
          0., 0., 0., 0., 9.95024860e-01, 0., 0., 0., 0., 0., 0., 0.,
          1.83939442e-01, 9.77962434e-01, 0., 0., 0., 0., 0., 0., 0.,
          7.00420797e-01, 7.00420797e-01, 1.08763695e-01, 0., 0., 0., 0.,
          0., 0., 2.06759423e-01, 6.89336360e-01, 6.89336360e-01, 0., 0.,
          0., 0., 0., 0., 0., 7.04615593e-01, 7.04615593e-01, 0., 0., 0. ]
      - [ 7.04599500e-01, 7.04599500e-01, 0., 0., 1.04058697e-03,
          2.52263853e-03, 0., 0., 6.18116790e-03, 6.40049934e-01,
          6.40049934e-01, 1.12594627e-02, 2.20519975e-02, 9.96122435e-02,
          4.03907955e-01, 2.04612892e-02, 0., 1.36364792e-02,
          3.84133756e-01, 3.84133756e-01, 3.84133756e-01, 1.54441610e-01,
          3.84133756e-01, 3.84133756e-01, 3.84133756e-01, 2.55840063e-01,
          1.46640986e-01, 5.53939529e-02, 3.88630815e-02, 7.01569244e-02,
          1.07083470e-02, 4.24027927e-02, 0., 6.88455045e-01,
          6.88455045e-01, 1.83775276e-01, 0., 0., 0., 0., 0., 0.,
          7.04437375e-01, 7.04437375e-01, 2.24506352e-02, 6.83400571e-01,
          6.83400571e-01, 5.39622456e-03, 0., 7.35058635e-03,
          1.52006641e-01, 1.85445055e-01, 3.12948078e-02, 2.33798157e-02,
          4.66515869e-01, 4.66515869e-01, 9.57691744e-02, 3.31934355e-02,
          6.91873729e-02, 4.66515869e-01, 4.36093479e-01, 8.98296610e-02,
          3.59335274e-01, 4.00079042e-01, 4.12148088e-01, 4.12148088e-01,
          1.84345424e-01, 2.28572056e-01, 4.12148088e-01, 4.06362355e-01,
          1.40867800e-01, 2.34560817e-01, 2.86776006e-01, 1.23365797e-01,
          2.96377987e-01, 1.72881801e-02, 2.05924492e-02, 0.,
          5.34475863e-01, 5.34475863e-01, 4.87145841e-01, 4.98753130e-01,
          0., 0., 0., 0., 0., 4.98753130e-01, 4.98753130e-01,
          4.98753130e-01, 5.24464428e-01, 5.24464428e-01, 2.61414647e-01,
          8.10777470e-02, 5.24464428e-01, 7.92543218e-02, 2.57096380e-01,
          8.97857547e-02, 1.19251050e-01, 4.58536595e-01, 6.36376217e-02,
          2.63158567e-02, 2.55436562e-02, 4.58536595e-01, 4.43683565e-01,
          3.75911385e-01, 1.45235240e-01, 4.58536595e-01, 4.21626776e-01,
          4.21626776e-01, 4.21626776e-01, 1.85859248e-01, 4.21626776e-01,
          1.65375739e-01, 1.84989616e-01, 1.04060918e-01, 4.21626776e-01,
          4.21488106e-01, 7.08541349e-02, 1.41309366e-01, 1.41514428e-02,
          4.21488106e-01, 2.86948651e-01, 4.21488106e-01, 4.21488106e-01,
          4.21488106e-01, 4.34106439e-01, 0., 0., 0., 4.32854235e-01,
          2.33468130e-01, 4.34106439e-01, 4.34106439e-01, 4.34106439e-01,
          5.14550507e-03, 1.59386192e-02, 8.39769915e-02, 1.29182667e-01,
          9.82928097e-01, 0., 0., 0., 5.14550507e-03, 3.33814360e-02,
          3.63579094e-02, 1.53201059e-01, 1.29528284e-01, 9.72880363e-01,
          0., 0., 0., 3.33814360e-02, 1.55746406e-02, 2.71857649e-01,
          5.30350029e-01, 5.30350029e-01, 5.30350029e-01, 1.93037227e-01,
          1.97221726e-01, 1.83972772e-02, 1.55746406e-02, 1.63448248e-02,
          4.23471183e-02, 2.09427848e-01, 1.33474097e-01, 5.50839484e-01,
          5.50839484e-01, 5.50839484e-01, 1.42210975e-01, 1.63448248e-02,
          1.36187309e-02, 0., 0., 0., 5.43908834e-01, 5.43908834e-01,
          5.43908834e-01, 3.26629579e-01, 1.36187309e-02, 0., 0., 0., 0.,
          9.95024860e-01, 0., 0., 0., 0., 0., 2.02868968e-01,
          6.61449611e-01, 1.23134360e-01, 7.06480205e-01, 0., 0., 0., 0.,
          0., 2.04260319e-01, 5.44121087e-01, 5.44121087e-01,
          5.44121087e-01, 2.40817219e-01, 8.14475119e-02, 3.75769194e-03,
          0., 0., 2.10099537e-02, 1.17455669e-01, 1.59072831e-01,
          5.60045660e-01, 5.60045660e-01, 5.60045660e-01, 1.17952019e-01,
          0., 0., 0., 0., 0., 5.66198766e-01, 5.65877795e-01,
          5.66198766e-01, 1.81566685e-01, 0. ]
      - [ 4.21881646e-01, 4.21881646e-01, 1.31792858e-01, 0., 0.,
          4.21881646e-01, 4.21881646e-01, 4.21881646e-01, 2.97482461e-01,
          1.53548166e-01, 1.94230169e-01, 2.50559393e-02, 0., 0.,
          5.29856384e-01, 5.29856384e-01, 5.29856384e-01, 3.00890505e-01,
          6.98852897e-01, 6.98852897e-01, 1.06666990e-01, 0.,
          5.19134030e-02, 4.50323969e-02, 1.15018617e-02, 0., 0.,
          5.96982658e-01, 5.96982658e-01, 7.36072585e-02, 3.89897488e-02,
          2.49028057e-01, 1.07920043e-01, 4.08188075e-01, 1.57410100e-01,
          9.62662250e-02, 1.92912027e-01, 1.53907031e-01, 2.14352570e-02,
          1.03433495e-02, 2.77125984e-02, 9.38200951e-03, 6.63299143e-01,
          6.63299143e-01, 2.26101354e-01, 1.57530695e-01, 2.92007864e-01,
          3.88317883e-01, 4.30501997e-02, 0., 4.28075701e-01,
          4.28075701e-01, 4.28075701e-01, 4.28075701e-01, 4.67041701e-01,
          4.67041701e-01, 8.54290277e-03, 0., 3.61100159e-04,
          3.06854934e-01, 4.44900960e-01, 2.20865101e-01, 4.67041701e-01,
          5.31548560e-01, 5.31548560e-01, 7.68640190e-02, 4.44143778e-03,
          1.10882975e-01, 5.31548560e-01, 3.58594984e-01, 2.11656466e-03,
          1.55653041e-02, 1.23933792e-01, 4.30742323e-01, 4.30742323e-01,
          1.93175554e-01, 4.30742323e-01, 4.30742323e-01, 4.30742323e-01,
          1.23796210e-01, 7.87831610e-04, 5.26938064e-04, 1.04471512e-01,
          4.03801382e-01, 4.24724668e-02, 7.09118471e-02, 1.46188019e-02,
          6.37424409e-01, 6.37424409e-01, 1.21559489e-04, 3.81807595e-01,
          2.87414063e-02, 3.93318981e-01, 3.93318981e-01, 3.93318981e-01,
          2.80862711e-02, 2.74189025e-01, 3.93318981e-01, 3.93318981e-01,
          4.41958755e-01, 4.41958755e-01, 3.73039278e-04, 6.90982938e-02,
          4.41958755e-01, 4.41958755e-01, 7.95335472e-02, 8.85850415e-02,
          4.41958755e-01, 3.20016086e-01, 3.71888012e-01, 1.22502707e-01,
          1.08051137e-03, 1.40853569e-01, 5.98834693e-01, 5.98834693e-01,
          1.32247470e-02, 3.28807272e-02, 2.35025072e-03, 4.79189217e-01,
          4.79189217e-01, 1.88318565e-01, 1.75552577e-01, 4.79189217e-01,
          4.79189217e-01, 1.02159321e-01, 3.67259374e-04, 0.,
          1.64161131e-01, 5.45503914e-01, 8.74455869e-02, 1.94623247e-01,
          1.71332687e-01, 5.45503914e-01, 5.45503914e-01, 0.,
          3.19969058e-02, 0., 1.49905980e-01, 6.92695558e-01,
          6.92695558e-01, 9.51435640e-02, 0., 0., 2.97162160e-02,
          4.56016138e-02, 0., 1.40230244e-04, 1.79563433e-01,
          6.91541076e-01, 6.91541076e-01, 1.26277152e-02, 0.,
          4.64388132e-02, 6.94386475e-03, 5.77769838e-02, 1.73330948e-01,
          0., 6.76350296e-01, 6.76350296e-01, 2.11746171e-01,
          4.29931190e-03, 7.98590388e-03, 0., 3.26535761e-01,
          5.08154809e-01, 5.08154809e-01, 5.08154809e-01, 2.72515237e-01,
          1.93298817e-01, 4.47909944e-02, 0., 0., 4.56402190e-02,
          2.59209514e-01, 3.80071819e-01, 4.66255724e-01, 4.66255724e-01,
          4.66255724e-01, 3.59767497e-01, 0., 0., 0., 0., 0.,
          9.95024860e-01, 0., 0., 0., 0., 0., 0., 0., 0., 9.95024860e-01,
          0., 0., 0., 0., 0., 0., 0., 0., 9.92617130e-01, 0., 0., 0., 0.,
          0., 0., 0., 6.02928638e-01, 7.84701884e-01, 1.13527901e-01, 0.,
          0., 0., 0., 0., 0., 2.39388302e-01, 8.33446026e-01,
          4.81453866e-01, 8.45656767e-02, 2.81885583e-02, 0. ]
      - [ 3.85496348e-01, 2.58710504e-01, 3.85496348e-01, 1.83132112e-01,
          3.85496348e-01, 3.85496348e-01, 3.85496348e-01, 6.35258481e-02,
          3.85496348e-01, 3.61971587e-01, 1.67558044e-01, 3.61971587e-01,
          3.61971587e-01, 3.61971587e-01, 2.26150036e-01, 3.61971587e-01,
          3.61971587e-01, 3.61971587e-01, 1.15334108e-01, 1.64769903e-01,
          5.36240995e-01, 2.27262899e-01, 5.32341050e-03, 2.60952935e-02,
          5.36240995e-01, 5.36240995e-01, 1.97921291e-01, 2.39566162e-01,
          4.26928878e-01, 4.71520662e-01, 4.71520662e-01, 0., 0.,
          2.83015192e-01, 4.71520662e-01, 9.23985988e-02, 4.61658761e-02,
          6.76914081e-02, 3.73603374e-01, 1.02197208e-01, 0., 0.,
          6.40514076e-01, 6.40514076e-01, 1.27873242e-01, 8.71699594e-05,
          2.58990288e-01, 5.13108194e-01, 8.98360088e-02, 1.57577127e-01,
          3.24126929e-01, 5.13108194e-01, 5.13108194e-01, 0.,
          5.63281530e-04, 4.41961646e-01, 4.72155660e-01, 3.72219563e-01,
          1.13778472e-01, 7.23200515e-02, 4.72155660e-01, 4.42984045e-01,
          3.36694829e-02, 3.07512969e-01, 2.78775364e-01, 3.80721092e-01,
          7.11770430e-02, 3.73269955e-04, 5.47595276e-03, 4.73618954e-01,
          4.73618954e-01, 4.73618954e-01, 4.66300011e-01, 4.73088175e-01,
          4.73088175e-01, 1.67914137e-01, 4.45059408e-03, 1.05225086e-01,
          4.73088175e-01, 1.89088315e-01, 1.77087873e-01, 1.32822115e-02,
          2.63409525e-01, 3.29505771e-01, 2.03233846e-02, 1.06860395e-03,
          3.45837086e-01, 5.89895666e-01, 5.89895666e-01, 1.80934346e-03,
          0., 1.08505078e-01, 4.38046277e-01, 2.10814297e-01,
          4.14572269e-01, 4.38046277e-01, 4.38046277e-01, 4.38046277e-01,
          0., 3.46581079e-03, 1.28693476e-01, 6.07281089e-01,
          6.07281089e-01, 2.12712646e-01, 2.94158813e-02, 3.52214456e-01,
          2.55533546e-01, 6.57063574e-02, 4.19103056e-01, 1.10785872e-01,
          2.92882323e-01, 4.19103056e-01, 4.19103056e-01, 1.06303960e-01,
          9.06775668e-02, 4.19103056e-01, 4.19103056e-01, 4.29211289e-01,
          4.29211289e-01, 9.33123752e-02, 3.79034914e-02, 4.29211289e-01,
          4.29211289e-01, 3.88738692e-01, 4.13775258e-02, 3.09595615e-01,
          2.39312928e-02, 1.04793712e-01, 4.21327651e-02, 1.73704023e-03,
          1.56340599e-01, 6.83949351e-01, 6.83949351e-01, 1.40780061e-01,
          2.16109515e-03, 0., 1.47172790e-02, 1.27510250e-01,
          3.08397174e-01, 5.34299076e-01, 5.34299076e-01, 5.34299076e-01,
          1.63259044e-01, 0., 1.13986607e-03, 2.62995567e-02,
          5.07862687e-01, 5.97117305e-01, 5.97117305e-01, 6.41071126e-02,
          1.30784065e-01, 3.32549214e-02, 1.48184644e-03, 2.63203029e-02,
          1.10707874e-03, 4.62234132e-02, 6.86351299e-01, 6.86351299e-01,
          2.17915878e-01, 8.48718686e-04, 0., 2.59483624e-02,
          2.33675633e-02, 5.58653206e-04, 1.23728430e-04, 1.09427571e-01,
          6.96193814e-01, 6.96193814e-01, 1.03252783e-01, 1.12317165e-03,
          2.22546216e-02, 1.15385873e-03, 0., 0., 7.11153785e-04,
          6.01547539e-01, 6.01547539e-01, 5.19214869e-01, 2.62303688e-02,
          8.84764188e-04, 0., 0., 0., 0., 0., 0., 0., 0., 0., 0., 0., 0.,
          0., 9.59037781e-01, 0., 0., 0., 0., 0., 0., 0., 0.,
          9.95024860e-01, 0., 0., 0., 0., 0., 0., 0., 0., 9.95024860e-01,
          0., 0., 0., 0., 0., 0., 0., 0., 8.98006916e-01, 0., 0., 0., 0. ]
      - [ 3.90647084e-01, 1.70020312e-01, 3.90647084e-01, 7.97723234e-02,
          3.90647084e-01, 3.90647084e-01, 3.90647084e-01, 2.12593332e-01,
          3.90647084e-01, 4.24134731e-01, 2.05080792e-01, 4.24134731e-01,
          4.24134731e-01, 4.24134731e-01, 1.00218184e-01, 2.02201888e-01,
          5.76572195e-02, 4.24134731e-01, 4.21742499e-01, 4.25802730e-02,
          1.70689523e-01, 4.76709791e-02, 4.21742499e-01, 4.21742499e-01,
          4.21742499e-01, 2.70615846e-01, 4.21742499e-01, 4.02111769e-01,
          0., 0., 0., 7.38037825e-01, 1.95909664e-01, 2.57882863e-01,
          8.75719935e-02, 4.16757315e-01, 1.18648246e-01, 0., 0., 0.,
          4.85528320e-01, 4.85528320e-01, 4.85528320e-01, 4.85528320e-01,
          1.95248902e-01, 0., 1.60382271e-01, 4.87671822e-01,
          3.50895822e-02, 3.32970977e-01, 1.89704075e-01, 5.39895177e-01,
          5.39895177e-01, 0., 0., 5.12497842e-01, 5.12497842e-01,
          2.02862546e-01, 3.64268005e-01, 4.05239649e-02, 5.12497842e-01,
          1.77292719e-01, 0., 0., 1.36132315e-01, 4.26545382e-01,
          1.78786516e-02, 3.76636088e-01, 1.86022744e-01, 5.55518091e-01,
          5.55518091e-01, 0., 0., 0., 0., 0., 6.53118432e-01,
          1.71714127e-01, 6.53118432e-01, 3.32966149e-01, 0., 0., 0., 0.,
          0., 5.86421847e-01, 5.78327715e-01, 5.45680821e-01,
          1.34250864e-01, 0., 0., 1.59662664e-01, 5.09208739e-01,
          1.95862930e-02, 9.99581590e-02, 1.04366310e-01, 5.86553454e-01,
          5.86553454e-01, 0., 0., 5.19442618e-01, 5.19442618e-01,
          2.07251027e-01, 3.30542743e-01, 4.24411222e-02, 5.19442618e-01,
          1.77024528e-01, 0., 0., 1.17182247e-01, 3.99450183e-01,
          6.19826391e-02, 4.21119601e-01, 2.21587256e-01, 5.43596745e-01,
          5.43596745e-01, 0., 2.75642395e-01, 0., 0., 0., 4.75321226e-02,
          1.33181497e-01, 6.61659837e-01, 6.61659837e-01, 1.47755563e-01,
          6.79887652e-01, 0., 0., 0., 0., 0., 2.48689651e-01,
          8.28965455e-02, 6.79887652e-01, 0., 4.97949794e-02,
          2.29228556e-01, 1.53945312e-01, 5.02827287e-01, 5.02827287e-01,
          5.02827287e-01, 3.97174895e-01, 0., 0., 2.78986037e-01,
          4.78701919e-01, 4.78701919e-01, 4.78701919e-01, 1.90234974e-01,
          4.25916612e-01, 1.11016430e-01, 0., 0., 3.15361843e-02,
          1.57178953e-01, 1.76434591e-01, 5.35387516e-01, 5.35387516e-01,
          5.35387516e-01, 2.79114783e-01, 0., 4.00183052e-01,
          4.00183052e-01, 4.00183052e-01, 0., 4.00183052e-01,
          1.45215839e-01, 4.00183052e-01, 1.18471682e-01, 4.00183052e-01,
          4.26163524e-01, 1.73560649e-01, 4.26163524e-01, 0.,
          4.26163524e-01, 9.37393531e-02, 4.26163524e-01, 2.20806912e-01,
          4.26163524e-01, 0., 0., 0., 1.31775886e-01, 7.09245384e-01,
          6.16982281e-01, 2.90703595e-01, 8.57355222e-02, 0., 0., 0., 0.,
          0., 9.40824032e-01, 1.86001450e-01, 2.53591776e-01,
          8.09853151e-02, 0., 0., 0., 0., 0., 9.95024860e-01, 0., 0., 0.,
          0., 2.62098134e-01, 3.90960604e-01, 6.02055430e-01, 0.,
          6.02055430e-01, 2.99312100e-02, 1.72404796e-01, 0.,
          1.29931718e-01, 2.75991529e-01, 1.44669130e-01, 4.34007436e-01,
          0., 5.70755184e-01, 7.81351849e-02, 5.70755184e-01,
          1.60013288e-01, 1.60016805e-01 ]
      - [ 3.63085926e-01, 4.82375771e-01, 3.55181277e-01, 0., 0., 0.,
          4.82375771e-01, 4.82375771e-01, 1.97832793e-01, 4.51421231e-01,
          4.51421231e-01, 1.14873319e-03, 0., 0., 0., 4.24694151e-01,
          4.51421231e-01, 4.51421231e-01, 3.87129575e-01, 3.51982892e-01,
          3.87129575e-01, 3.50562245e-01, 0., 0., 3.87129575e-01,
          3.87129575e-01, 3.87129575e-01, 1.40006468e-01, 4.75290269e-01,
          4.75290269e-01, 4.75290269e-01, 0., 0., 2.46846825e-01,
          4.75290269e-01, 1.05424605e-01, 2.42095701e-02, 6.38777092e-02,
          3.61697555e-01, 1.02650695e-01, 0., 0., 6.41536713e-01,
          6.41536713e-01, 1.56293258e-01, 3.74976128e-01, 3.74976128e-01,
          3.74976128e-01, 3.37314233e-03, 1.09511018e-01, 3.74976128e-01,
          3.74976128e-01, 3.74976128e-01, 3.74976128e-01, 3.59634608e-01,
          3.59634608e-01, 2.22015321e-01, 3.59634608e-01, 3.59634608e-01,
          3.59634608e-01, 3.59634608e-01, 3.59634608e-01, 2.04344869e-01,
          3.24953139e-01, 1.74776539e-01, 2.10562080e-01, 1.67089403e-01,
          5.76146021e-02, 4.73686866e-03, 5.10933340e-01, 5.10933340e-01,
          5.10933340e-01, 4.47735310e-01, 4.47735310e-01, 4.47735310e-01,
          1.69208705e-01, 0., 1.37523517e-01, 4.47735310e-01,
          3.18335354e-01, 2.11608469e-01, 2.65564658e-02, 2.26351157e-01,
          3.75133276e-01, 1.91229936e-02, 0., 3.82878810e-01,
          5.72120368e-01, 5.72120368e-01, 4.06388147e-03, 9.20568705e-02,
          1.02633305e-01, 3.65213990e-01, 1.60391659e-01, 5.78954995e-01,
          5.78954995e-01, 3.77074033e-01, 2.51354296e-02, 5.39418198e-02,
          2.65565962e-02, 3.78960148e-02, 4.81035441e-01, 4.81035441e-01,
          4.81035441e-01, 4.81035441e-01, 2.49097511e-01, 7.12388828e-02,
          1.86902806e-02, 3.66710126e-01, 6.98715001e-02, 4.10572410e-01,
          4.12113428e-01, 4.12113428e-01, 6.72102049e-02, 6.39363378e-02,
          4.12113428e-01, 4.12113428e-01, 4.58826274e-01, 3.95584404e-01,
          8.62356201e-02, 4.68102582e-02, 4.58826274e-01, 4.58826274e-01,
          3.27911258e-01, 7.04938397e-02, 2.91963041e-01, 4.17882092e-02,
          9.73725244e-02, 4.79290113e-02, 0., 1.25351325e-01,
          6.87946141e-01, 6.87946141e-01, 1.31604597e-01, 5.92414616e-03,
          0., 9.73118376e-03, 1.09902211e-01, 2.46094838e-01,
          6.64349079e-01, 6.64349079e-01, 1.94710881e-01, 0., 0., 0.,
          3.24436352e-02, 4.94429737e-01, 4.94429737e-01, 4.94429737e-01,
          4.94429737e-01, 1.27146438e-01, 0., 0., 1.17928023e-02,
          2.51178071e-03, 1.02195755e-01, 6.96593881e-01, 6.96593881e-01,
          1.08699895e-01, 1.16756943e-03, 0., 1.23985363e-02,
          1.02021713e-02, 2.47657212e-04, 0., 8.11772868e-02,
          7.00933337e-01, 7.00933337e-01, 6.00896068e-02, 0.,
          9.12138727e-03, 4.11786459e-04, 7.96720560e-05, 0., 0.,
          6.44791365e-01, 6.44791365e-01, 4.02555108e-01, 0., 0., 0., 0.,
          0., 0., 0., 0., 0., 0., 0., 0., 0., 0., 0., 0., 0., 0., 0., 0.,
          0., 0., 0., 0., 0., 0., 0., 0., 0., 0., 0., 0., 0., 0., 0., 0.,
          0., 0., 0., 0., 0., 0., 0., 0., 0., 0., 0. ]
      - [ 3.91984582e-01, 2.10653871e-01, 3.91984582e-01, 8.15329254e-02,
          3.91984582e-01, 3.91984582e-01, 3.91984582e-01, 1.52151465e-01,
          3.91984582e-01, 4.22829866e-01, 1.50210485e-01, 4.22829866e-01,
          4.22829866e-01, 4.22829866e-01, 1.37917623e-01, 2.42201820e-01,
          4.00573574e-02, 4.22829866e-01, 4.27757740e-01, 5.12253307e-02,
          2.19117403e-01, 7.93548524e-02, 4.27757740e-01, 4.27757740e-01,
          4.27757740e-01, 1.54627994e-01, 4.27757740e-01, 4.38581020e-01,
          0., 0., 9.15019773e-03, 6.47138536e-01, 2.64717847e-01,
          2.26723775e-01, 7.55316019e-02, 5.05103588e-01, 1.18776046e-01,
          0., 0., 2.07865424e-03, 4.68539536e-01, 4.68539536e-01,
          4.68539536e-01, 4.68539536e-01, 3.21077853e-01, 0.,
          1.84210107e-01, 5.29857337e-01, 2.98984237e-02, 2.79561758e-01,
          1.98695824e-01, 5.29857337e-01, 5.29857337e-01, 0.,
          6.55619006e-05, 5.18845141e-01, 5.18845141e-01, 2.16629416e-01,
          3.21883857e-01, 4.27361801e-02, 5.18845141e-01, 1.86690763e-01,
          0., 1.16737239e-04, 1.58874363e-01, 5.28025568e-01,
          2.27244478e-02, 3.02331895e-01, 1.72845319e-01, 5.33303678e-01,
          5.33303678e-01, 0., 0., 0., 0., 2.18637288e-03, 6.50415480e-01,
          2.13159665e-01, 6.50415480e-01, 3.19349408e-01, 0., 0., 0., 0.,
          8.72377190e-04, 5.96838772e-01, 5.96838772e-01, 5.20094573e-01,
          1.05396621e-01, 0., 0., 1.77074388e-01, 5.56252539e-01,
          4.76181619e-02, 7.93415830e-02, 1.54618740e-01, 5.57311893e-01,
          5.57311893e-01, 0., 0., 5.12663364e-01, 5.12663364e-01,
          2.84472704e-01, 2.82070279e-01, 8.94097462e-02, 5.12663364e-01,
          1.94746941e-01, 0., 0., 1.46978781e-01, 4.77020264e-01,
          1.10018171e-01, 3.43667924e-01, 3.01351815e-01, 5.12205541e-01,
          5.12205541e-01, 0., 0., 0., 0., 0., 5.00099212e-02,
          1.64436132e-01, 6.94093227e-01, 6.94093227e-01, 0., 0., 0., 0.,
          0., 0., 0., 0., 0., 0., 0., 5.65218814e-02, 2.56076008e-01,
          2.73378551e-01, 4.88047928e-01, 4.88047928e-01, 4.88047928e-01,
          3.70199561e-01, 0., 0., 2.57845670e-01, 4.59216028e-01,
          4.59216028e-01, 4.59216028e-01, 3.03840399e-01, 4.37791914e-01,
          1.10950053e-01, 0., 0., 4.07428704e-02, 1.89788297e-01,
          2.99586505e-01, 5.14170229e-01, 5.14170229e-01, 5.14170229e-01,
          2.72617280e-01, 0., 0., 0., 0., 0., 4.20439184e-01,
          5.30617893e-01, 5.43533027e-01, 4.90733683e-01, 0., 0., 0., 0.,
          0., 0., 0., 0., 0., 0., 0., 0., 0., 1.71023473e-01,
          6.79691732e-01, 6.79691732e-01, 1.90773696e-01, 6.00781627e-02,
          0., 0., 0., 0., 0., 9.58508134e-01, 1.90270379e-01,
          1.79080755e-01, 5.85428849e-02, 0., 0., 0., 0., 0.,
          9.95024860e-01, 0., 0., 0., 0., 0., 0., 0., 0., 9.56794560e-01,
          0., 0., 0., 0., 0., 0., 0., 0., 0., 0., 0., 0., 0. ]
      - [ 3.92832279e-01, 1.65932104e-01, 3.92832279e-01, 7.94085264e-02,
          3.92832279e-01, 3.92832279e-01, 3.92832279e-01, 1.90612748e-01,
          3.92832279e-01, 4.12971079e-01, 2.41564319e-01, 4.12971079e-01,
          4.12971079e-01, 4.12971079e-01, 1.24287449e-01, 2.57607192e-01,
          5.46525009e-02, 4.12971079e-01, 4.26758289e-01, 5.76960035e-02,
          1.95091188e-01, 1.18171126e-01, 4.26758289e-01, 4.26758289e-01,
          4.26758289e-01, 1.72539428e-01, 4.26758289e-01, 3.95566702e-01,
          1.74434751e-01, 4.06268567e-01, 4.06268567e-01, 4.06268567e-01,
          9.66952741e-02, 3.47096711e-01, 1.37834370e-01, 4.06268567e-01,
          1.28882870e-01, 3.89685631e-02, 1.68274820e-01, 4.95120548e-02,
          4.24979553e-02, 0., 6.69938803e-01, 6.69938803e-01,
          2.12067425e-01, 1.93416979e-02, 2.94348925e-01, 4.79034126e-01,
          3.32674570e-02, 3.25760216e-01, 1.91922784e-01, 5.13042867e-01,
          5.13042867e-01, 8.88837129e-02, 4.74287942e-02, 4.98543411e-01,
          4.98543411e-01, 1.89682171e-01, 3.58159453e-01, 4.51413020e-02,
          4.98543411e-01, 2.81756967e-01, 3.81095149e-02, 3.01500224e-03,
          2.26593107e-01, 4.79187518e-01, 4.84235846e-02, 3.38027447e-01,
          2.06681728e-01, 5.26513040e-01, 5.26513040e-01, 3.29177384e-03,
          1.03690717e-02, 5.10842621e-01, 5.10842621e-01, 2.07099378e-01,
          3.66504878e-01, 4.22976725e-02, 5.10842621e-01, 1.81395486e-01,
          7.39631592e-04, 8.47724499e-04, 1.65124848e-01, 4.53879684e-01,
          1.91646591e-02, 6.51994860e-03, 0., 6.16506696e-01,
          6.16506696e-01, 0., 3.74765635e-01, 3.74765635e-01,
          3.74765635e-01, 3.74765635e-01, 1.11427240e-01, 2.63599381e-02,
          3.74765635e-01, 3.74765635e-01, 3.74765635e-01, 3.80812466e-01,
          3.80812466e-01, 3.80812466e-01, 9.12370607e-02, 2.91708946e-01,
          3.32215130e-01, 2.72161365e-01, 3.71841460e-01, 3.80812466e-01,
          3.49867284e-01, 3.76636446e-01, 2.49856189e-01, 1.33903459e-01,
          1.44824266e-01, 5.83664887e-02, 4.56958979e-01, 4.56958979e-01,
          4.56958979e-01, 4.32688147e-01, 4.32688147e-01, 4.32688147e-01,
          1.49497401e-03, 3.13279976e-04, 1.11420587e-01, 4.32688147e-01,
          3.19195360e-01, 3.64004314e-01, 2.36523654e-02, 1.93854392e-01,
          2.17337593e-01, 0., 6.19465936e-05, 4.43419099e-01,
          6.27146661e-01, 5.64295113e-01, 1.25488348e-03, 8.02416056e-02,
          2.52306908e-02, 2.16159925e-01, 6.14547789e-01, 6.14547789e-01,
          4.10589069e-01, 7.78249186e-03, 4.70755957e-02, 1.17752165e-01,
          9.05876607e-02, 6.70069978e-02, 2.10183978e-01, 5.56172550e-01,
          5.56172550e-01, 5.56172550e-01, 5.22679910e-02, 2.04038899e-02,
          8.02541673e-02, 1.91304296e-01, 5.40121496e-02, 3.45707804e-01,
          5.55053174e-01, 5.55053174e-01, 2.81675726e-01, 4.98144366e-02,
          1.94701657e-01, 3.15482587e-01, 3.57938141e-01, 2.25562915e-01,
          4.30035405e-02, 2.43715376e-01, 5.23381650e-01, 5.23381650e-01,
          3.87114108e-01, 5.97737953e-02, 2.30741024e-01, 1.21234395e-02,
          2.55594831e-02, 1.21481856e-02, 0., 2.53928035e-01,
          6.70905054e-01, 6.70905054e-01, 1.66270912e-01, 1.35976064e-03,
          0., 1.65770738e-03, 9.74627119e-03, 6.61538064e-01,
          6.61538064e-01, 3.43559057e-01, 0., 0., 0., 0., 1.55212609e-02,
          1.25011161e-01, 5.70962369e-01, 5.70962369e-01, 5.70962369e-01,
          2.08728183e-02, 0., 0., 0., 5.44080557e-03, 9.12569240e-02,
          6.96692944e-01, 6.96692944e-01, 1.17981046e-01, 2.49018893e-03,
          0., 0., 0., 0., 3.89648107e-04, 2.67069846e-01, 6.78119361e-01,
          6.78119361e-01, 4.70149145e-02, 1.34615356e-03, 0., 0., 0., 0.,
          0., 6.16419494e-01, 6.16419494e-01, 4.82767254e-01,
          2.88994368e-02, 0. ]
      - [ 5.24857819e-01, 5.24857819e-01, 1.63007051e-01, 1.08568454e-02,
          2.41578758e-01, 5.24857819e-01, 2.82581598e-01, 2.63210908e-02,
          5.23127355e-02, 5.52484274e-01, 1.02552123e-01, 1.40458262e-02,
          1.22395255e-01, 5.52484274e-01, 5.52484274e-01, 1.06907412e-01,
          1.10061895e-02, 2.03766957e-01, 1.83888227e-01, 6.61716936e-03,
          9.61272642e-02, 5.57246685e-01, 5.57246685e-01, 1.27780706e-01,
          1.89729277e-02, 5.54667115e-02, 5.57246685e-01, 4.71766815e-02,
          1.80227812e-02, 3.02190065e-01, 5.01990557e-01, 3.52865100e-01,
          1.37391943e-03, 1.43589079e-01, 5.01990557e-01, 5.01990557e-01,
          3.69999884e-03, 4.94276593e-03, 3.70115303e-02, 2.72358898e-02,
          9.75566800e-04, 0., 5.96756399e-01, 5.96756399e-01,
          5.28823376e-01, 2.78317239e-02, 4.41024512e-01, 4.41024512e-01,
          3.96496393e-02, 8.99005085e-02, 4.41024512e-01, 4.41024512e-01,
          4.41024512e-01, 1.12484999e-01, 1.42314330e-01, 6.79824874e-02,
          6.46331087e-02, 2.23402604e-01, 4.46844488e-01, 4.46844488e-01,
          4.46844488e-01, 4.46844488e-01, 3.43359053e-01, 3.87353688e-01,
          4.44581956e-01, 4.44581956e-01, 4.44581956e-01, 4.44581956e-01,
          1.82268724e-01, 1.16690382e-01, 3.22308540e-02, 8.38239416e-02,
          1.43416658e-01, 4.63633060e-01, 4.63633060e-01, 4.63633060e-01,
          1.16278186e-01, 2.73878686e-02, 4.14542079e-01, 3.78530443e-01,
          2.30820365e-02, 4.82937694e-03, 1.04223780e-01, 2.52398640e-01,
          4.50622626e-02, 1.50998880e-03, 1.43782735e-01, 6.68803394e-01,
          6.68803394e-01, 3.78123187e-02, 2.92235948e-02, 4.57970761e-02,
          4.53055233e-01, 4.53055233e-01, 4.48688120e-02, 3.30692120e-02,
          4.10341382e-01, 4.53055233e-01, 4.53055233e-01, 5.67650795e-01,
          1.55639388e-02, 2.17551701e-02, 8.79487172e-02, 9.59753171e-02,
          4.56896536e-02, 8.88818204e-02, 5.67650795e-01, 5.67650795e-01,
          5.72287083e-01, 5.72287083e-01, 6.32390156e-02, 2.86211651e-02,
          6.71709478e-02, 4.12760600e-02, 2.18086597e-02, 1.54335620e-02,
          5.72287083e-01, 4.48429734e-01, 4.48429734e-01, 4.28573191e-01,
          2.80600339e-02, 4.84689623e-02, 4.48429734e-01, 4.48429734e-01,
          3.50506268e-02, 5.58903515e-02, 1.52154546e-02, 1.05039477e-01,
          8.13765079e-02, 1.32754247e-03, 2.05411809e-03, 6.66478574e-01,
          6.66478574e-01, 2.95069695e-01, 0., 1.46560753e-02,
          7.05310702e-03, 3.01683426e-01, 6.65320933e-01, 6.65320933e-01,
          9.48153844e-04, 1.66075514e-03, 5.01757152e-02, 1.19395413e-01,
          2.87701964e-01, 5.51316189e-03, 7.08549237e-03, 5.49735546e-01,
          5.49735546e-01, 4.52479310e-02, 3.66405072e-03, 5.44869192e-02,
          5.49735546e-01, 5.43285251e-01, 4.55073304e-02, 1.19907642e-03,
          6.84378296e-02, 5.43285251e-01, 5.43285251e-01, 2.66979984e-03,
          4.00812412e-03, 3.19872856e-01, 1.52040571e-01, 5.98320365e-02,
          3.07973521e-03, 1.56454614e-03, 6.71463907e-01, 6.71463907e-01,
          2.53115386e-01, 6.98154606e-03, 2.72950251e-02, 1.75634248e-03,
          7.75787234e-03, 3.56376899e-04, 0., 1.15647458e-01,
          6.98702753e-01, 6.98702753e-01, 5.67122549e-02, 0., 0., 0.,
          4.80279811e-02, 7.03799665e-01, 7.03799665e-01, 0., 0., 0., 0.,
          0., 8.38859240e-04, 1.36330246e-03, 7.02988207e-01,
          7.02988207e-01, 6.77832663e-02, 7.76778732e-04, 0., 0., 0.,
